318 100
인공지능 -0.0066351253 0.0036359988 0.0007197757 0.017061261 -0.01308163 -0.031078707 0.020444566 0.04506383 -0.013051996 -0.0032493784 -0.006482336 -0.01629188 -0.018804466 0.0075867167 -0.0034876238 -0.016575469 0.005534511 -0.019776952 -0.017882988 -0.04517406 0.008434975 0.015202035 0.013741713 -0.0078415405 -0.00010424845 -0.0029535124 -0.011103253 -0.013366931 -0.027101254 0.00242216 0.010541932 0.0030052203 0.017334566 -0.0021831228 -0.02074678 0.018268902 0.0017533634 -0.027080756 -0.011793345 -0.03847879 -0.010009294 -0.01568739 -0.009380872 -0.007711195 0.025241233 -0.0014707742 -0.015603236 -0.0008739011 0.013140359 0.021186741 0.0023681056 -0.00614211 0.0041683204 0.0043103183 0.00015878532 0.012599146 0.0034430597 -0.0014009095 -0.03212445 0.02112325 -0.0013169276 0.0025769733 -0.000728264 -0.0265462 -0.024254715 0.008683534 0.017353738 0.027274966 -0.025330337 0.025262024 -0.006979521 0.012108517 0.010228462 -0.017825058 0.0212368 0.015607645 0.012280131 -0.00095855346 -0.022450743 -0.00018177429 -0.002311837 0.0027703417 -0.016756095 0.028237734 -0.009612342 0.0050236783 0.0070544607 0.01703714 0.017842254 -0.001988785 0.023215417 0.017453287 -0.0020714945 0.006125476 0.029797325 0.028273683 0.0025368808 -0.020334344 0.014118692 -0.00728485
기업 -0.014105076 0.006847617 0.0015545177 0.012530401 0.0044283243 -0.026390031 0.013171587 0.036489613 -0.009324016 -0.0062271217 -0.011790947 -0.020584742 -0.017511716 0.008140162 0.004153121 -0.0050896043 0.008882659 -0.010529897 -0.012269007 -0.030279288 0.0026369996 0.0036872595 0.014263357 -0.017305495 0.0016639101 0.0032641122 -0.013407681 -0.011802978 -0.018372038 0.011951859 0.025316799 -0.0010306645 0.005752853 -0.0016382402 -0.0116953105 0.019492093 0.0019316848 -0.011193625 -0.00051560806 -0.018950181 0.007282217 -0.024434611 -0.00943107 -0.0033370168 0.018399606 0.0067146644 -0.0005868017 -0.010470553 0.008091327 0.011861739 0.01713709 -0.018204654 0.0069040866 0.0063738585 -0.0077836504 0.022681719 0.008222185 0.011151407 -0.025023442 0.017640293 -0.00842181 0.004628179 -0.0013900399 -0.021150237 -0.015642213 0.010434263 0.023312498 0.012131587 -0.01125983 0.025989886 -0.014047035 -0.0054087876 0.015018073 -0.000413464 0.013418257 0.0060581337 -0.0031327512 -0.0025639588 -0.011264995 0.0034279104 -0.010357109 0.0036749886 -0.013390139 0.010904972 -0.0021560185 0.00034521637 0.0005490133 0.00872892 0.020767268 -0.011706918 0.019020164 0.013196997 -0.0024245125 -0.0028698351 0.014473227 0.022106662 0.014856832 -0.01316098 0.001362926 -0.0070011956
기술 -0.0045166896 0.006031221 -0.009999633 0.0052031325 0.0042717117 -0.010889645 0.006885533 0.030378386 -0.014359339 0.0063896137 -0.014985633 -0.0143846 -0.0012864646 0.0018983453 0.008304378 -0.017115876 0.00692614 -0.006100967 -0.016063422 -0.032430377 -0.0064836764 0.0026999188 0.0016175577 -0.015075509 0.003305086 -0.004301762 0.0004543192 -0.009570653 -0.021416605 0.008626282 0.019005544 -0.004541484 -0.0013144203 0.0013392309 -0.022364538 0.013469399 -0.005045095 -0.01276746 -0.0077174725 -0.026665973 -0.0063167256 -0.013805936 -0.0019955854 0.004050594 0.02323268 0.0033333353 -0.0045779534 -0.010797947 0.0020726344 0.0078552 0.0092887 -0.010797152 -0.000665853 -0.00536877 -0.015269103 0.0071131447 -0.0029593073 -0.0004903095 -0.02810316 0.00503024 0.0044603734 -0.0023111936 0.011245134 -0.012766322 -0.024535654 0.014422874 0.021327885 0.021864519 -0.02404817 0.023248138 -0.0057843374 0.008223378 0.013055366 -0.0046145692 0.009578471 0.019895852 0.013516005 0.0036252276 -0.0177086 0.0066087157 0.00036540214 -0.008514784 -0.024782779 0.015907405 -0.0021362458 -0.0034434055 -0.004044624 0.009412238 0.024551108 -0.006180876 0.011825805 0.018972803 0.0050365347 0.0003717009 0.023406249 0.022921419 0.014277564 -0.0091977455 0.01820196 -0.017474758
개발 -0.013407724 0.012532812 -0.003779866 0.005057618 0.0013180897 -0.02406478 0.014327921 0.037297063 -0.00083609385 -0.0073307436 -0.0018474207 -0.0072023976 -0.007491018 -0.005815712 0.009116195 -0.014363734 0.011086156 -0.022564625 -0.016280644 -0.023341544 0.0022330915 0.006164782 0.01563159 0.0022052284 -0.0151064275 0.003083269 -0.0026415836 -0.01194409 -0.014038702 0.005487734 0.015557819 -0.0010522585 -0.0005908476 0.0015422823 -0.011261211 0.024971588 0.004416363 -0.023134345 -0.019127963 -0.018345732 0.0031432807 -0.011789269 0.005708087 -0.005672045 0.028486865 0.0015166354 -0.0036830385 -0.011101669 0.0038155292 0.007369379 0.012695601 -0.00897581 -0.0025376412 -0.007048676 -0.0126978895 0.014002354 0.0007913343 0.01378123 -0.017839497 0.00520611 0.00039014564 0.0066070533 0.010953336 -0.016547414 -0.014493594 -0.00031328338 0.013845746 0.026135389 -0.02109854 0.009163801 -0.004573702 -0.00046330164 0.008485786 0.0031333582 0.0117251575 0.0074627255 -0.0009790126 0.0072535174 -0.021967003 0.00896264 -0.006600022 0.006105112 -0.014063564 0.020326845 -0.004869549 -0.00039658265 0.009559513 0.023544446 0.015609279 -0.016508715 0.010487391 0.01314991 -0.0053063924 0.0023697156 0.026936542 0.018670047 0.015199653 -0.0178134 0.008107582 -0.016810864
생성 -0.011284252 0.0037761973 -0.009882435 0.003223948 0.0013630149 -0.01011947 0.010510058 0.025953209 -0.009514204 0.007669402 -0.015286578 -0.004836074 -0.017462445 0.0026382026 -0.004165818 -0.013996329 -0.0013738838 -0.0083323335 -0.00054872147 -0.02840919 0.0014202442 -0.0025523792 0.012301948 0.0033972138 -0.006873433 0.00076402153 -0.006053297 -0.007141171 -0.021449804 0.0045440174 0.018518683 0.0049773767 0.006154313 -0.0060227565 -0.003910246 0.0067552887 -0.0070252665 -0.010423626 -0.008795743 -0.021134026 0.0011687048 -0.02062999 -0.010282285 0.00737709 0.022925172 -0.007950862 -0.0017549791 -0.0067010797 0.009842132 0.0007216334 0.010711221 -0.0024834494 0.015546516 -0.0023933514 -0.006568032 0.0035240727 -0.01048251 -0.0055366033 -0.019673187 0.001261678 0.0052505205 -0.004862765 0.0047628297 -0.01175832 -0.018451614 0.0031300609 0.022015851 0.023644006 -0.019513909 0.02406683 -0.013906985 0.00855001 0.0044512125 -0.0021599885 0.014192275 0.016857762 0.00075398525 0.0087418975 -0.005404217 -0.0040228395 -0.008875215 -0.0076091294 -0.011229471 0.010779621 -0.009443337 -0.0063115126 0.00909395 0.016467925 0.0046088877 -0.010553245 0.017098172 0.006589061 0.0015184968 -1.5272566e-05 0.016356513 0.0072687767 0.013452905 -0.0036091995 0.009233228 -0.005881557
분야 -0.014150966 0.0050877337 -0.0041618817 -0.0023098288 -0.012460577 -0.020916233 0.01563497 0.033256035 -0.012820463 -0.0064025205 -0.015851965 -0.014057333 -0.019552855 -0.008641111 -0.0018980599 -0.020473216 -0.0039587063 -0.022869004 -0.010556894 -0.030882388 -0.008432476 0.0074101463 0.014052217 0.0007744235 -0.0120486105 -0.003258857 -0.005064825 -0.025312833 -0.01422864 0.011994095 0.020301778 -0.0056402637 0.001713648 -0.0039573414 -0.014977899 0.025245365 0.001056337 -0.012307877 -0.004825636 -0.030919995 0.008996199 -0.024351524 -0.007792632 -0.005017825 0.019965934 -0.004293238 -0.0071021994 -0.0015800738 0.0062798494 0.008368219 0.011379543 -0.016862113 0.014584709 0.01162435 -0.016460769 0.016397286 0.0091996165 -0.0036207172 -0.030560175 0.0016673995 0.008627848 0.00092774484 0.012080907 -0.02388216 -0.014949011 0.0073027215 0.015518035 0.02033706 -0.026055245 0.009786207 -0.007569326 0.0097518675 0.017410029 -0.0009883269 0.013020361 0.020330219 -0.005224079 0.003408849 -0.01618584 0.01089792 0.006661031 -0.0068394807 -0.0125085525 0.007560653 -0.003990413 -0.0063076676 -0.0042144596 0.02726875 0.015391312 -0.0039773514 0.026866967 0.02327787 -0.012738949 0.001856592 0.026894242 0.024471685 0.007873395 -0.01953628 0.013422559 -0.01812084
협력 0.0055219177 -0.0029400955 -0.0029683844 0.0043582595 -0.0020108914 -0.009681344 0.012442203 0.016023822 -0.006647239 -0.0010998163 -0.000384025 -0.004760192 -0.0074500493 0.010046224 -0.0042732907 -0.007551516 0.01032663 -0.0024328874 -0.0029860022 -0.024964299 0.0011878194 0.002122578 0.012379178 -0.0029168576 -0.0011741047 0.0028235486 -0.006572863 -0.013609653 -0.008581253 0.000861186 0.014654609 0.010924154 0.0025922058 0.0054365504 -0.014422494 0.010300931 -0.0101124635 -0.01828789 -0.010944883 -0.02407826 0.0072746165 -0.015346111 0.00808888 -0.00909931 0.015105024 0.008968708 -0.011612158 -0.014675364 -0.00026439715 0.0029213126 0.004383005 -0.013321876 -0.004749404 0.004839409 -0.01197537 -0.0012173327 -0.002959831 -0.006220162 -0.019771779 -0.0030799056 4.9201553e-05 -0.003666753 0.008133692 -0.0068541886 -0.013450423 0.008956826 0.0018744849 0.004794352 -0.017203983 0.005988592 -0.007077371 0.008587633 0.0023738458 0.0010036435 0.0144716175 -0.00036933259 0.0067996522 0.006215877 -0.011759689 0.010546971 0.0055652033 -0.00639087 -0.016733836 0.01182153 -0.0032877557 -0.004545728 0.010175259 0.004494015 0.0028704908 -0.004213043 0.0065243966 0.00809238 -0.0061543407 0.0022123924 0.008295074 0.011036182 0.0135700395 -0.0115543865 0.003922941 -0.0009950914
데이터 0.003433396 -0.001606794 0.0059115756 0.013980945 -0.0072447793 -0.017698633 0.01518556 0.022459466 -0.011505379 -0.0065661804 -0.01065545 -0.011035058 -0.0056398776 -0.0021413444 -0.00019720233 -0.00836772 0.0067152786 -0.0152718555 -0.013352076 -0.035766605 0.0006470005 0.013926615 0.0064766323 -0.015686119 -0.012355578 0.0063286875 -0.011573628 -0.0076988745 -0.021091312 0.012369992 0.0068022767 0.006356877 0.0050059166 -0.0031431047 -0.01633758 0.013514549 -0.009660664 -0.015825544 -0.016369969 -0.022564707 0.008798022 -0.017436802 -0.0019181567 0.0010437348 0.027589293 -0.007131734 -0.012549714 -0.010636109 0.015641373 0.009406829 -0.0007553666 -0.009333087 0.015864423 -0.0051623997 -0.011535607 0.02193324 -0.00979441 0.0075975037 -0.019833086 0.015471547 0.00880478 -0.0014612789 -0.0007908618 -0.004944386 -0.014902001 0.011024821 0.0034910557 0.025480129 -0.01774192 0.010557284 -0.0065792087 0.002624105 0.013219838 -0.008124163 0.008099591 0.013450242 0.01217942 -0.0053394143 -0.011787279 -0.0020924716 -0.007913489 -1.7747217e-05 -0.025361678 0.018289665 -0.0016711901 -0.0006289718 0.0055947225 0.025834512 0.02391027 -0.007614404 0.017838968 0.00870117 -0.012085082 0.010994634 0.013610824 0.016072694 0.0063681356 -0.014152252 0.013535109 -0.013817057
기반 -0.013572413 0.011492718 0.0014099131 0.014242178 0.0040524197 -0.012247022 0.018623756 0.01858725 -0.011944086 0.004358643 -0.0050314264 -0.014762965 0.001133688 -0.003053282 0.010149264 -0.008691492 -0.0045637186 -0.015594753 -0.013711375 -0.02570287 0.0014931769 0.015843261 0.013822435 -0.012005565 -0.00023149504 0.0025790827 -0.009166799 -0.021594614 -0.01142964 -0.004452754 0.017840844 -0.0032836809 0.010247899 0.012749159 -0.011914244 0.017079514 -0.0057795686 -0.005747797 -0.0034095969 -0.030700665 -0.0031063512 -0.009772367 -0.00053309574 -0.0033910244 0.0151921725 -0.0026883923 -0.0043048803 -0.002257119 0.0009099308 0.0036374691 0.0064390004 -0.006423698 0.005281153 -0.002850526 -0.0007222886 0.008309267 0.0011439471 0.004036903 -0.0121447975 0.00040860104 -0.006787443 -0.0034948331 0.011507006 -0.013818212 -0.023863725 0.0036189868 0.0073116147 0.019864636 -0.023697436 0.017330842 -0.017194733 0.0039015326 0.013399893 0.0020942744 0.003065294 0.003666974 -0.0036878532 -0.007713815 -0.021535974 0.0029422834 -0.0018880048 -0.007383301 -0.007209965 0.014305176 0.0032085527 0.003475878 0.0013201629 0.0062697507 0.011436043 -0.0010101327 0.008491117 0.012094189 -0.0005047048 0.002274903 0.022991024 0.023089325 0.009375528 -0.0011253024 0.014366266 -0.014208433
지원 -0.00824453 -0.005077983 -0.010020942 0.012207477 -0.0040125228 -0.018961968 0.0027620152 0.023213757 -0.006587726 -0.0038560603 -0.005191255 -0.009850382 -0.008737356 0.0015940935 -0.0025138478 0.0015641742 0.005260276 -0.02018483 0.0015774127 -0.024281928 0.0010233897 0.009228014 -0.0016761827 -0.006385483 0.0053815953 -0.0038458474 -0.012690154 -0.000114078546 -0.011958815 -0.0017214059 0.01736089 0.006300173 0.008149022 0.011687751 -0.017452246 0.014890943 -0.0009777815 -0.00602723 -0.0042432114 -0.011990657 0.004028068 -0.0040887482 -0.0033235566 -0.0062841964 0.012235376 0.0017818855 -0.007122354 0.001059749 0.008256896 0.013818574 0.007585047 0.0031082523 0.002778472 0.009856503 -8.356777e-05 0.00015949721 -0.0047514746 0.00018817239 -0.008804216 0.0050614886 -0.0025700682 0.008868798 0.010967546 -0.010730493 -0.016573982 -0.0014122599 0.0043485123 0.0009921005 -0.009403444 0.0071325256 -0.0035625189 0.0074536316 0.0016863623 -0.013879312 0.009817522 0.0010152906 0.0049780444 -0.0037699922 -0.002360566 0.0046861856 0.0027139646 -0.0026959446 -0.012567525 0.017824646 -0.00069196546 -0.0041849758 -0.007262261 0.011822915 0.016973328 0.0013739938 0.0014884959 0.01731417 0.0015099995 0.010606689 0.01981024 0.004061518 -0.003244294 -0.0006469031 0.015664864 -0.0034018927
제공 0.003335441 0.0008102396 0.005746452 -0.0048607863 -0.01007359 -0.020590624 0.0041536144 0.025351586 -0.0084073385 -0.008410623 0.000515502 -0.012220848 0.0008942588 -0.0044436078 0.0042904755 -0.0034151895 0.0040447707 -0.014767807 -0.0025982116 -0.028820055 -0.0023846398 0.0028616015 0.011215171 -0.008590905 -0.010084862 0.004498403 -0.0065897834 -0.014648585 -0.0043270467 0.007093928 0.006273179 0.0031029452 0.013669407 0.010561362 -0.0040862975 0.016218374 -0.0009870155 -0.0134057915 -0.013207272 -0.020093894 -0.0019769247 -0.01225727 -0.0066812634 0.0054325894 0.008039603 -0.008006508 -0.006997507 -0.007669968 -0.0028939103 0.007442995 0.0007612094 -0.007336199 -0.0027051289 0.0038650315 -0.0015761809 0.009694713 -0.006023987 0.0012146778 -0.009073241 0.01050325 -0.008565961 -0.0024000448 0.004498513 -0.008441572 -0.022451077 0.008338225 0.0016115231 0.0049096 -0.009062392 0.009542549 -0.0037421463 0.011419246 0.0032712042 0.0047310363 0.011385543 0.018705204 0.0085526 -0.0092304805 -0.014350718 0.011239516 0.00476157 0.0092344815 -0.0054132403 0.020005696 -0.012136659 0.005837948 -0.0045224875 0.01621271 0.018394094 -0.00036041922 0.019821478 0.011459817 -0.0044597085 0.009300811 0.006275242 0.013337664 0.015787635 -0.013012098 0.0110745225 -0.015722675
활용 0.0056855245 0.0107372785 -0.0014893082 0.010584278 -0.001140781 -0.022405308 0.007958694 0.030177694 -0.009989671 -0.003799874 -0.0042967433 -0.007048643 -0.01101468 -0.0024556667 0.0066376096 -0.01550832 -0.0014194433 -0.020160299 -0.010624702 -0.032026745 -0.0039330455 -0.0018567431 0.005990946 -0.014114726 -0.013986988 -0.0077724936 -0.013773778 -0.005764018 -0.0090330085 0.0043880506 0.008736181 -0.004824393 0.0056448667 0.0035643296 -0.011806646 0.013730205 -0.0031432796 -0.013774479 -0.015536834 -0.028164875 -0.009185344 -0.0149871325 0.0015422481 0.0052043833 0.014792139 -0.003224399 0.00424931 -0.006683387 0.0032628716 0.016492307 0.009683807 -0.012013065 0.012434696 0.006782067 -0.012265423 0.010815045 -0.00030910774 0.009385321 -0.020314986 0.0049846536 0.0018352107 0.002079638 0.0034739242 -0.014899556 -0.021043422 0.011630138 0.01954873 0.022508333 -0.023318077 0.01762763 -0.012017675 0.012167207 0.010805747 -0.0011147144 0.0132776555 0.01693322 -0.0025824257 0.00788113 -0.014866253 0.00095090095 -0.0032428293 0.009963827 -0.021367976 0.011435777 0.004102668 0.0020090188 -0.0057604695 0.007947458 0.022816472 0.00086085324 0.018980416 0.008111718 -0.012754182 0.007741278 0.020514447 0.009228952 -0.0005811327 -0.011121102 0.0035843444 -0.011433759
서비스 -0.0045838538 -0.003758536 0.0075295186 -0.005846043 0.0029852833 -0.0049240263 0.0042691715 0.024328131 0.00646658 -0.0054618595 -0.012029834 -0.013039633 -0.013622445 -0.002598048 -0.0048736283 -0.0144620985 0.0020200585 -0.0057088337 0.002301527 -0.017911132 -0.0043763183 0.0054096137 0.0033598966 0.0044331406 -0.0021544856 0.0077497186 -0.0128696095 0.0003626226 -0.010295813 0.01122601 -0.00020791027 0.00342966 0.00440105 0.0019283793 -0.012879981 -0.00080031506 -0.01000309 -0.01654591 -0.0031053387 -0.0140891615 -0.0021134366 -0.0017291941 -0.0025746 -0.0027328744 0.00218382 -0.01053688 0.006016879 -0.009925975 -0.0028935815 0.010124436 0.011092829 -0.0113155395 0.004609734 -0.004513954 -0.0016770279 0.0029905718 -0.0044905785 0.004390667 -0.0034913288 0.011721506 -0.00945916 -0.0048551736 0.00947297 -0.0056629637 -0.014076229 0.0035145306 0.017557582 0.008106166 -0.018862525 0.011405817 0.00093828054 0.007871544 0.009273616 -0.009417099 0.006786246 0.006755462 0.006553412 -0.0079128435 -0.0160733 0.003887773 -0.0092984345 0.00607988 -0.009415943 0.01874599 -0.007050157 0.00086134614 0.008228168 0.0051204795 0.00400106 -0.0021260085 0.011700565 0.0048706895 0.004164562 -0.004993391 0.012140846 0.009919734 0.0136037255 0.0006479826 0.012041485 0.002031949
플랫폼 -0.014329872 0.011889318 -0.010782476 0.0028927538 -0.007721068 -0.022242635 0.0017703148 0.016743585 -0.010507337 -0.0010827594 -0.014493953 -0.0038736702 -0.018518647 -0.005071423 0.010015518 -0.0030344476 0.009730317 -0.010125288 -0.005691462 -0.03070843 0.0067589525 0.0093069095 0.01250185 0.00029764688 0.0038413194 0.009170356 -0.01734947 -0.019737454 -0.012391673 0.010154414 0.019787438 0.008508595 0.01338638 -0.0021376815 -0.0055606477 0.009768102 -0.013437076 -0.0045512705 -0.0069138017 -0.025925694 -0.002568635 -0.018874418 0.0037053337 0.0020096714 0.014810209 -0.008264402 -0.008685907 -0.0073280158 0.011998872 0.0053533553 0.0070292214 -0.0070307683 -0.0013052011 0.004650299 -0.0074328408 0.014684638 0.003425329 0.001895078 -0.022386981 0.015748655 0.005338661 0.008012989 0.0073875613 -0.004216366 -0.008055541 0.0037323302 0.02119081 0.01966582 -0.009528792 0.014217167 -0.010905361 -0.0015462473 -0.00014878501 -0.0028367217 0.020349625 0.019591838 0.0012185492 0.00582515 -0.009055543 0.0014193126 0.0007014411 -0.0048140744 -0.0072259153 0.020235246 5.431847e-06 0.0055365944 0.009303036 0.02244267 0.013636748 -0.012615125 0.023239851 0.019378718 -0.0018597633 0.0029461074 0.008501241 0.011437734 0.016465865 -0.011941357 0.0020284394 0.0008458628
관련 0.0046599316 0.01092729 -0.0011144923 -0.004086948 0.006692644 -0.015924102 0.012839259 0.023064315 0.0056900154 -0.009129498 0.0023392425 -0.016697243 -0.014245948 -0.008435876 -0.0049927393 -0.00012317875 0.010309744 -0.0136546055 -0.0013629092 -0.02179757 0.008437624 0.011059029 0.0035809625 -0.008034026 -0.010320597 0.005149808 -0.0035798585 -0.012605686 -0.0020559472 -0.00066402974 -8.563031e-05 -0.00036798997 0.0040079635 -0.0042416663 -0.014666261 0.001243936 0.0061444147 -0.0031022464 -0.005959924 -0.009667301 0.0076079927 -0.011415283 0.006342801 0.0019234606 0.018020215 0.006836371 -0.00878706 -0.007364787 0.005468507 0.01030511 0.00853284 -0.00012727061 0.00887181 -0.0064911423 -0.0071028355 0.00178929 0.008888844 0.007696007 -0.014208892 0.01003253 -0.007258965 -0.0051072286 0.0047494834 -0.0031373636 -0.0076437336 0.009351758 0.007300905 0.0074183443 -0.011093216 0.008671883 -0.0119063975 -0.0056981994 0.012489568 -0.0057378085 0.006815508 -0.00019163881 0.011832237 0.0009534468 -0.008131229 0.006780784 -0.007836795 0.0015513091 -0.008459807 0.002334179 0.0028259493 0.004140934 0.008037764 0.01600665 0.0078105372 -0.011372115 0.018068396 0.010781776 0.0023728996 0.0093353735 0.012296868 0.0056587625 0.0059217033 0.0015665131 0.00039053624 0.0021498373
연구 -0.011923657 0.0065974556 -0.0011953583 0.013626426 -0.007651753 -0.022610942 0.0041617327 0.030354736 -0.010849929 0.009101142 -0.014483626 -0.020126715 -0.016049618 0.0075178035 -0.004884602 -0.016303899 -0.005692209 -0.009349497 -0.0037577853 -0.023896014 -0.0025285904 0.01369197 -0.0007596158 -0.008701848 -0.010961033 -0.00066834176 -0.009472575 -0.0058277347 -0.014236869 -0.003992493 0.008290675 -0.0040604896 0.0083313575 0.013422665 -0.019485267 0.022494758 0.0038553884 -0.022978391 -0.01756001 -0.0154574 0.008258681 -0.020212205 -0.007294458 0.0053989263 0.022907762 0.0071723154 -0.013639143 -0.017344963 0.008269155 -0.0007514521 0.0024710807 -0.011296235 0.015909772 0.011857576 -0.009062785 0.019093147 0.0071935775 0.001504336 -0.011677866 0.015886625 0.0023976048 -0.002261651 -0.0025900158 -0.017312657 -0.009306305 -0.0014388696 0.010449319 0.025854971 -0.013277231 0.023422103 -0.017274437 0.002275782 0.014725374 -0.011024181 0.020337293 0.02031511 0.0034949563 -0.0019181428 -0.01558931 0.0005685529 -0.008993371 -0.0014897343 -0.019301709 0.020341123 -0.00951907 0.0075831157 -0.006118144 0.008826637 0.024440013 0.0024335452 0.012556821 0.01647893 -0.010059277 -0.004601018 0.009811978 0.024312003 0.015448943 -0.00031558995 0.016902206 -0.0040559564
혁신 -0.002869464 -0.007521733 0.0018356179 0.0044076364 0.0037317767 -0.013925208 0.005919216 0.030646162 -0.0033670717 0.00028159333 -0.01330726 -0.017824138 -0.016471053 0.009156623 -0.00863382 -0.00045576988 -0.0075360625 -0.013587665 -0.007820658 -0.032205768 0.009238445 0.013015808 0.007633701 -0.00041250823 -0.0035695042 0.009828695 0.0004283358 -0.022188952 -0.017177079 0.0025998903 0.014412627 -0.0014800369 0.0065829535 -0.0048613995 -0.009067145 0.017522123 0.00084986683 -0.016366126 -0.016182778 -0.030998612 -0.00103742 -0.020244775 -0.0074130427 0.004151404 0.023295637 0.0010377559 -0.012772345 -0.012542736 0.013585516 0.011563369 0.0015850778 -0.014489904 0.005877749 0.005518317 -0.0034751918 0.013813257 -0.006292898 -0.0066078 -0.025272863 0.0074507114 0.0049106698 0.0057991366 0.004123207 -0.0065790256 -0.0148689225 0.008461032 0.002114589 0.021409847 -0.008321317 0.019592019 -0.0010019518 0.011186801 0.008511178 -0.007056353 0.011270046 0.0007004235 0.011721231 -0.006595308 -0.0040818597 0.0014548836 -0.00059746613 -0.0089900065 -0.023629364 0.0054290267 -0.010537253 0.0020695743 -0.00667914 0.009241421 0.00818918 -0.009734842 0.020816788 0.016104033 0.0052320147 0.011118201 0.0075342082 0.022083353 -0.0018849453 -0.010533346 0.00026175936 -0.004460822
정책 -0.0020170538 0.00915749 7.7216915e-05 -0.0021922262 0.005584823 -0.021083761 0.017420527 0.024877654 -0.008688107 -0.004432972 -0.012504521 -0.014872905 0.0010292603 -0.0019518428 0.008607688 -0.018822296 0.0035781278 -0.014206127 0.0018579961 -0.03063773 0.008235456 0.0010818476 -0.0014482869 -0.011061082 -0.006923567 -0.0029623865 -0.009166183 -0.018989382 -0.0111131035 0.0032093516 0.00953176 0.0062647834 -0.0029512113 -0.00056747353 -0.0060407543 0.020768782 -0.013826906 -0.005260613 -0.0017967314 -0.02387599 0.008337833 -0.02205435 0.006913295 0.0033699581 0.016762342 -0.005735949 -0.009288912 -0.0094240215 0.0066417013 0.008824944 0.014009172 0.0035772694 0.01395879 -0.0015514109 0.0045090923 0.009616112 0.0041264016 0.0057311663 -0.0178285 0.01088635 -0.005414384 -0.00446852 -0.0058671357 -0.009741424 -0.0073681185 0.0045982352 0.012454182 0.016380623 -0.0052948124 0.006277413 -0.0053759348 -0.005012104 0.011020395 0.004113211 0.017937288 0.015580317 0.010555946 0.0066077365 -0.005031146 0.01385362 -0.006410605 0.0093568405 -0.008541333 0.010378563 0.0063203177 0.0069354116 0.010032264 0.01601451 0.022734242 -0.0040027928 0.02231913 0.014217345 0.0033129237 -8.7441e-05 0.019258458 0.021239333 0.00501734 -0.009623993 0.011512356 -0.015342773
교수 0.006250323 -0.007893853 -0.008834205 0.007710692 0.0043144664 -0.019667298 0.011011006 0.030313222 -0.011870444 -0.005584717 -0.013216871 -0.012651869 -0.0073715984 0.010491724 0.007549291 -0.008419357 0.004091701 -0.0038918913 0.0034818572 -0.015559557 0.0064031547 -0.0016001746 0.00068994606 -0.0113562215 0.0021916078 -0.001984741 -0.014809214 -0.0036700084 -0.0028885554 0.0001795596 0.019775784 0.0016607397 0.00065161334 0.0027593256 -0.010696815 0.007941271 -0.0013494997 -0.007041133 -3.963631e-05 -0.028679075 -0.0019187536 -0.017844368 0.0069420785 0.0048268144 0.010702579 0.0015032368 -0.010732065 -0.0058555114 0.01481308 0.004376351 0.00039592577 -0.013305371 0.002493203 0.0013754137 -0.0013621085 0.020320972 -0.004208798 0.0051541277 -0.0070620845 0.008226334 0.0011692727 0.011415199 0.01136116 -0.003477433 -0.01996464 0.013884001 0.016674 0.02262755 -0.015190923 0.01736432 -0.00053971866 -0.0014759434 0.014038016 -0.0027284557 0.019798966 0.0057924567 -0.00031259816 0.006302898 -0.020964367 -0.0022192907 -0.0073347203 -0.0006233616 -0.015960362 0.019505134 0.007160102 0.00088683295 0.002041519 0.015091902 0.010599949 -0.013481671 0.020202637 0.0057697888 0.0014191327 0.012317691 0.015035188 0.017112909 0.011458579 -0.010251944 0.011878757 -0.007835785
시스템 0.0016443523 0.0076045296 -0.0007860367 0.010678172 -0.011179319 -0.008354929 0.018025372 0.017598532 -0.003552093 -0.0049833073 -0.006887734 -0.005909331 1.6698345e-05 0.00089392177 0.0031920823 -0.007576549 0.010023183 -0.018026862 -0.012192791 -0.025085056 -0.0018821461 0.0112891365 -0.004261138 -0.008084395 -0.011911376 0.0054510487 -0.0090688225 -0.020756193 -0.0075098695 0.012460531 0.007819691 -0.0036194306 0.0077314326 0.0023100143 -0.02081969 0.02025109 -0.010912993 -0.01747829 -0.009518724 -0.02563988 0.0014045272 -0.002832474 0.0041194563 0.0060706534 0.014910365 -2.249634e-05 -0.0075112917 -0.014680192 0.008523132 0.009251529 -0.0031320571 -0.011636479 -0.004542941 -0.0038264957 -0.0008514341 0.019024322 0.0033865646 0.0054968847 -0.008504105 0.0060704765 -0.0012108749 -0.0073727346 0.0019798386 -0.013828973 -0.0134537555 0.011367077 0.0034848908 0.009099318 -0.019927895 0.010130529 -0.010987211 0.0043391464 0.010715457 -0.010361652 0.0055865985 0.010403765 0.008541788 0.0055313422 -0.014488835 0.0005713645 -0.0066746357 -0.00033609188 -0.011413927 0.014351796 0.005124206 -0.0006877426 0.00041391896 0.0072898134 0.011626376 -0.012894138 0.011848911 0.01149554 -0.011667145 0.012445948 0.0031606324 0.0042856755 -0.0017428064 -0.0003368835 0.013255597 0.0011165859
신뢰 -0.0021619657 0.003895343 -0.0057445834 0.015503582 -0.0002454448 -0.014121787 0.009901522 0.029428238 0.00029842963 -0.00089215353 -0.007268511 -0.012322697 -0.0055852747 0.0047660414 0.0034908259 -0.016977606 -0.0030404574 -0.01238815 -0.013726787 -0.027936986 0.00024052814 0.011079427 -0.003495159 0.0018192478 -0.006172947 -0.0055896426 -0.0040751332 -0.017206578 -0.022856448 0.00034099258 0.013346784 -0.0055763633 0.0061153118 0.006172639 -0.017792614 0.018230489 -0.0021809235 -0.00630238 -0.008137779 -0.025092745 0.002138387 -0.017718025 -0.009318584 0.005435515 0.017732056 -0.011325351 -0.012885014 -0.012316374 0.009849533 0.014364418 0.01493614 -0.015400858 0.007143915 -0.0005217521 -0.011363592 0.020045588 0.0034953654 0.0012439713 -0.030370824 0.0037832682 -6.6311186e-05 0.009391573 0.009003255 -0.02373652 -0.028114492 0.011962974 0.011590197 0.0129135195 -0.01227429 0.011706723 -0.0045329784 0.0029467759 0.0016428386 -0.006940155 0.019639209 0.021000808 0.006458206 0.0047341934 -0.020864433 0.006234073 -0.0062195375 0.0013160083 -0.018810177 0.012350742 -0.010266159 0.011886583 0.0036488539 0.0150229 0.012414948 0.0014175494 0.010017649 0.01678618 -0.0033636286 0.013265184 0.022950279 0.015422669 0.011378282 -0.01201848 0.00072288327 -0.012945904
로봇 -0.0013975087 0.008021869 0.008036584 0.013136203 -0.009988077 -0.004466 0.0004921295 0.015594294 -0.0028663466 0.006882976 -0.0016793755 -0.0018374312 0.002973284 0.0010080608 -0.0055881827 -0.013119306 0.007494081 -0.014990014 -0.0075710993 -0.012564926 -0.0019940587 -0.0012645713 0.0008982202 -0.002649208 -0.0005006787 0.00637098 -0.009678233 -0.0057962756 -0.0017215019 0.00534277 0.013493444 -0.0031474486 0.009455237 -0.0051012253 -0.004974029 -0.00042319845 -0.005476344 -0.018788224 -0.0068669193 -0.020904759 -0.0045063323 -0.008104872 0.0024442477 -0.0031561346 0.003398035 -0.0067911027 -0.0026138185 -0.008742388 -0.005385399 0.004658132 0.011203061 0.0012069974 -0.0060087293 0.0046204384 -0.009701237 -0.0015084293 -0.00037764755 0.0020779523 -0.019911662 -0.0012031882 -0.0023730625 0.008025391 -0.0058286465 -0.000885248 -0.010868232 0.0041392096 0.017632566 0.014815798 -0.0139988465 0.014428717 -0.0018937087 0.0083263535 0.0053977836 -0.008155559 0.009026067 0.0015292421 0.0041051777 0.0053039375 -0.0038634678 0.013067292 -0.00819685 -0.005721214 -0.0034804144 0.010993711 -0.00859055 0.002463312 0.0027324501 0.0072786603 0.0050031682 0.0011187423 0.019496674 0.00078247173 -0.0024888057 0.0001684691 0.0025490623 0.008978698 0.00023704165 0.0031384856 6.0677008e-05 -0.0028140754
추진 -0.0041264007 0.0068071843 -0.00083362526 0.015130862 -0.0015888376 -0.020946074 0.0076414603 0.025359238 -0.008564749 -0.0076216473 -0.014417028 -0.016112389 -0.002316169 0.0046289843 0.008862272 -0.0030300112 -0.0046894094 -0.010864489 0.0024996344 -0.021802114 0.0036388114 0.012140058 -0.0043762447 0.0035635582 0.0026503727 0.008695731 -0.014802925 -0.0061480184 -0.0061573833 0.0026058098 0.0051809237 0.0076063504 -0.0018767943 -0.0023905563 -0.008434838 0.020985333 0.004556509 -0.017506104 -0.017036077 -0.012026635 0.006229895 -0.017301708 -0.00869088 -0.0069756783 0.012483767 -0.004209784 -0.0043733637 -0.0071593267 0.0024154542 0.0017160292 0.016305525 -0.012058157 -0.0018593199 0.010076775 -0.0026768846 0.019891923 -0.005395615 -0.0037573618 -0.017221449 0.0061445744 -0.009142068 -0.00048821056 0.005262028 -0.005602181 -0.007832828 0.007295451 0.007200069 0.012321601 -0.01830065 0.020635681 -0.014355876 0.004739691 0.0066226856 -0.011174662 0.0036875815 0.0153307365 -0.0051815445 -0.00068108836 -0.009870718 0.012909874 -0.00837514 0.0034533753 -0.0048113717 0.0064862412 -0.0060491925 0.0069524245 0.0060159755 0.015835801 0.02195874 -0.0047553345 0.015806232 0.009588128 -0.011746555 0.007017406 0.01534677 0.005952458 0.006692871 -0.008230336 0.008275692 -8.355541e-05
주제 -0.005933138 -0.0042463467 0.005278984 -0.0028519712 -0.01103605 -0.0152839525 -0.0008167516 0.02021341 -0.0023802447 -0.002532881 -0.0140205845 -0.008521512 -0.009072005 0.004452763 0.0088906055 -0.0022251613 0.009903191 -0.02027744 0.0042065373 -0.02187272 0.009481014 0.007798906 0.0073596085 -0.014692671 -0.0131922895 0.009302938 -0.008326734 -0.007911617 -0.0042550643 0.0031067985 0.019825328 0.0011590187 -0.0057729357 -0.0043067294 -0.011142208 0.0019807757 0.003674276 -0.007892041 -0.015080371 -0.010088198 0.00876589 -0.0054541784 0.0063430555 -0.011296117 0.01453064 -0.01004305 -0.008040956 -0.005626428 0.0043784697 0.008047767 0.009080624 -0.0034621505 0.009879049 0.009542307 -0.010322813 0.017403156 0.005221443 0.012887696 -0.0109249 0.0033014168 -0.0034088003 0.00085066585 0.00037371402 -0.00055317755 -0.011588539 0.00753233 0.013445662 0.0032692738 -0.005221287 0.021084027 -0.008425233 0.0041659973 7.6127208e-06 -0.010840174 0.017982263 0.005439948 0.009731158 0.0014911261 -0.012986343 0.0078058117 -0.00502152 -0.0015056903 -0.010955046 0.0165972 -0.0036117581 0.0021623503 -0.0076997345 0.021610526 0.0028292416 0.0021988358 0.015760077 0.0027129932 -0.008004656 -0.0046644467 0.005804417 0.020130852 0.016471604 -0.0050199474 0.007965933 0.0021549347
구축 -0.007756536 0.00021470508 0.0012552422 -0.0027403394 -0.011516127 -0.020468673 0.01568918 0.021575343 -0.008490149 -0.007809806 -0.005158971 -0.0038423168 -0.007734695 0.0011445826 -0.0037902985 -0.0021598549 0.0027429506 -0.00031795757 -0.014203455 -0.021698032 -0.008519087 0.0045545776 -0.004962638 0.0011316157 -0.009255293 -0.0059625506 0.00048978516 -0.01699175 -0.007431846 -0.004594537 0.018061047 0.010415233 0.0054337764 0.00796011 -0.0036454666 0.0028179553 0.0072081196 -0.01865071 0.0032040884 -0.012560422 -0.0031419396 -0.012911583 0.008786673 -0.006548863 0.019845197 -0.0068100016 0.0048009544 -0.005051793 0.012049091 0.002365675 0.010441608 0.004087247 0.0065832445 0.0028650756 0.001215464 0.01570551 0.008128783 0.010965367 -0.0053725615 0.013300339 0.00884177 0.00094410573 0.00023193969 -0.006919517 -0.010550619 0.003657604 -0.00085881224 0.00039350725 -0.012549912 0.018929502 -0.009228605 -0.0051362016 0.010515949 -0.0029022947 0.009363889 0.010676988 0.006004634 0.0056881476 -0.0074606035 0.004707955 0.008365125 0.002813414 -0.014788134 0.015789064 0.003595925 0.0042334716 -0.0028965387 0.013150007 0.01569283 0.0035586634 0.010880748 -0.0008907975 -0.0022878584 0.0032910234 0.013260051 0.0010239909 0.014923427 -0.012718545 0.011642182 -0.015621826
엔비디아 0.006230518 0.009185911 -0.00046005668 0.0006896331 -0.0019677647 -0.012048195 0.0008394257 0.02389445 -0.002277236 0.0039743986 -0.014178297 0.0011581751 -0.0071466113 0.00028080295 -0.00876195 -0.0036117309 0.008303049 -0.0031152095 -0.0117163975 -0.026032226 -0.0052351556 0.0039092638 -0.0049148924 -0.012816517 -0.0053288 0.0010995596 -0.014999778 -0.0133135095 -0.0092137335 0.009975379 0.010701509 0.001621646 -0.0037322366 -0.004247425 -0.009826925 0.017093835 0.002757151 -0.012475209 -0.0051052305 -0.026913606 -0.00218032 -0.014868208 0.005689887 -0.003844241 0.008121915 -0.010587937 -0.0049512344 -0.012727305 0.002716331 0.0023328455 0.0029939543 -0.008370566 -0.0038224014 0.00017249337 -0.0023182936 0.004182456 -0.008091105 -0.0010896683 -0.023307046 0.0053870175 0.005666364 -0.0019049047 0.004917503 -0.004931616 -0.003160033 0.0087039145 0.018640338 0.0015670466 -0.019756192 0.004584161 -0.013636317 -0.005948127 -0.0019286869 -0.0069163376 0.009856384 0.0048516006 -0.0063526654 0.0051742466 -0.009031462 0.00861331 0.0063073314 0.007817717 -0.01186811 0.014162395 -0.006978496 0.0036134124 0.005082879 0.021384843 0.007559994 -0.0015599395 0.005165827 0.0065919524 0.0052337837 -0.0008169184 0.009866045 0.002728906 -0.0041607986 0.0024378598 0.0010513335 -0.0014693482
뇌 -0.010894462 -0.0005708514 -0.01012707 0.012868026 0.0032831181 -0.008447341 0.016580632 0.02002376 -0.014041249 0.009238579 -0.012836091 -0.00094007084 -0.003379872 -0.00016263765 -0.006808478 -0.010518852 0.008208726 -0.018862143 -0.0037096464 -0.028433055 0.009725192 0.0030458816 0.014166032 -0.011168105 -0.013331814 -0.008027575 -0.009516816 -0.005725053 -0.010985385 0.013371376 0.013818798 0.005509239 0.0075147795 0.0116138505 -0.01300349 0.018169494 -0.013270726 -0.009139503 -0.0070909695 -0.01888285 0.0067976573 -0.014580615 -0.0029922454 -0.0017223359 0.013879998 -0.004611501 0.0018413047 -0.013170557 0.013392523 0.006888036 0.008414457 -0.002620871 0.0043468894 0.0039654844 -0.008281034 0.015173179 -0.000827272 -0.0006651512 -0.025357632 -0.003659531 0.0006055538 -0.0041845455 0.000512797 -0.015541396 -0.021963742 0.004893986 0.01676731 0.011135401 -0.019772774 0.016599968 -0.007882458 -0.0034649402 0.006355146 -0.0058229435 0.007003403 -0.0014540743 0.01061774 0.003789473 -0.014307086 0.012610078 -0.0004716653 0.0074549164 -0.014667333 0.020061128 -0.0016950248 -0.004646104 -0.0046761427 0.022419348 0.013027566 -0.0042581772 0.02135221 0.0035949654 -0.0047673564 -0.005831596 0.004807561 0.004778084 0.011471546 -0.00444774 0.013399307 -0.005412966
논의 -0.000480816 0.007200629 -0.004036233 0.0066953446 0.0068607186 -0.009763376 0.012388096 0.008837756 0.003116799 0.0049710562 -0.00066870305 -0.016276637 -0.0062327366 0.0037067488 -0.005259421 -0.013092507 0.007568638 -0.01572856 -0.00914772 -0.0073091914 -0.00653716 0.012689621 0.0035769232 0.0007813836 -0.0056599095 -0.0052420264 -0.013246269 -0.008899136 -0.013342563 -0.00042144387 0.015727164 -0.0059459917 -0.0029122396 -0.0030631318 -0.014450099 -0.0005718465 -0.0037031455 0.0004356892 0.0030641197 -0.019713478 -0.00867474 -0.011120017 -0.009344716 -0.006625824 0.00495678 0.0025303885 -0.011141807 -0.003091397 0.005609378 0.010663011 0.0023748574 -0.014364935 0.008774738 -0.0041935295 0.0017897601 0.009197969 0.008219461 0.0037091898 -0.014084359 0.011610496 -0.0071264347 -0.007721105 0.005309847 -0.01082379 -0.014131646 0.0009028938 -0.0018081636 0.009471243 -0.01061885 0.006857194 -0.0029285834 0.0063956236 0.011428667 -0.011605313 0.0022570258 -0.0024964858 -0.006644648 -0.0036480816 -0.0097021265 -0.004820495 -0.0060035037 -0.0021549112 -0.0030376909 0.010400832 0.006628169 -0.0069321957 -0.004204526 0.008420882 0.017867576 -0.00266414 0.010602406 0.008845237 0.0004617753 -0.00680845 0.012204347 0.015299428 0.010125703 -0.0011459546 -0.0026156018 -0.009989082
진행 0.00590439 0.0008923381 -0.011286299 0.008215848 -0.0075226086 -0.0035003733 0.010827342 0.010047047 -0.00046911888 0.005679916 -0.009517739 -0.007603776 0.0030498349 0.009608038 -0.008553966 0.0013557187 0.010961893 -0.01151078 -0.0017544708 -0.018104501 0.008869791 0.0037124173 0.008680217 0.0056326212 0.0017257832 -0.0068488074 -0.0062112967 -0.0071615484 -0.0062113823 0.0057572653 0.017110014 0.005773596 0.01314672 -0.0064422498 -0.013460754 0.010119151 0.0011082451 -0.009633915 -0.011618485 -0.017222883 -0.008604212 0.00067452824 0.0033493633 -0.009631145 0.01377088 0.0036615424 -0.008858218 -0.010272513 0.0045401715 0.014146484 -0.0054950044 -0.00452887 -0.0032670822 0.0009350175 -0.0005359197 0.0022036866 -0.003489216 0.0029546474 -0.018308789 0.012414708 0.0045134947 -0.007704642 -0.00083512877 -0.0048619974 -0.017799847 -0.004469029 -0.0005344455 0.0035941894 -0.00034450353 0.016907152 -0.0023091491 -0.0070979455 0.010640829 0.0011520186 0.0072192526 -0.0025658244 -4.610529e-05 0.00032023012 -0.015781494 0.0060130144 2.9156798e-05 -0.007231014 -0.017566893 0.014905459 -0.009846556 -0.0040735565 0.0056241443 0.008693656 0.0057392046 -0.00896025 0.007757911 0.012661914 -0.008401253 -0.0026665388 0.0032036772 0.0048402804 -0.0031424453 -0.01513931 0.013052705 0.0018815472
말 -0.0066989176 -0.008191615 -0.0035229607 -0.0008500117 0.007827384 -0.005619054 -0.0009945458 0.00938229 -0.012632164 0.0020965396 -0.00882608 -0.0076678325 0.00029498804 0.007857596 0.0048193503 -0.012129139 0.0076986263 -0.016884446 -0.010257594 -0.020243688 -0.0020936783 0.003821907 -0.0011515775 -0.0012438213 0.007287889 0.0068984525 -0.0048640855 0.002505101 -0.005367156 4.8294616e-05 -7.4944546e-05 0.008023611 -0.0061910674 -0.00051490404 0.0014508804 0.0041749324 -0.0006208127 -0.014490787 0.0009748098 -0.004209319 -0.009759973 -0.010605695 0.0078004464 0.0016908812 0.00898745 -0.00010847183 -0.0123862205 0.0063048434 0.001071708 -0.000881385 0.006247989 -0.00273951 -0.0029046081 0.007058147 -0.0051978375 -8.60863e-05 0.0066073667 0.008249602 -0.0009200953 0.0051789735 0.00065470854 -0.007315942 0.006013434 0.0028397348 -0.008844517 0.0006238606 0.0025448455 0.0070387763 -0.015308569 0.01376849 -0.0028664435 0.010956935 -0.0022003043 -0.008136752 -0.00025003726 -0.0019459362 0.004537821 0.0048784567 -0.0052350545 0.0065526874 -0.009704174 -0.0010953356 -0.015443123 0.010291521 -0.0039848685 0.009805145 -0.0030639393 0.0144337 0.011652791 -0.0014945884 0.007520437 0.014322023 0.0005269995 0.010299524 0.010510936 0.013353182 0.00896393 -0.012031758 -0.0013464349 -0.0035757124
기능 -0.0032751285 0.0040526595 -0.0012450515 0.011128474 -0.006075084 -0.011029202 0.013513959 0.019037724 0.00078897155 0.0045945994 -0.00783974 -0.0152853355 -0.003162109 -0.0085573355 -0.0021863815 -0.01646838 0.00070503174 -0.017829016 0.003299705 -0.021323435 0.010676403 -0.0048513073 -0.0007953535 -0.0020375762 -0.005801576 0.0012540168 -0.008497024 -0.009648977 -0.014906087 -0.0070888624 0.014794508 0.0021418622 0.010336639 -0.005334679 -0.004995427 -0.0007836559 0.004697232 -0.0035889393 -0.01168795 -0.0077104964 -0.0060247905 -0.018408922 0.0011753276 0.0015221679 0.0034843853 -0.009608047 0.0057020886 -0.0032971061 0.004987653 0.007863936 0.001503203 -0.0033080676 0.005968661 0.011154639 -0.009470672 0.010235447 0.0053500426 -0.004564377 -0.022224871 0.014131598 0.007140357 -0.0030019472 0.0074708955 -0.007920452 -0.015487009 0.0017990022 0.0036598784 0.016386284 -0.008611981 0.0024455523 -0.0060209823 -0.00081903284 0.0123154195 -0.00515079 0.015541367 0.008960216 -0.0016108442 0.00806152 -0.00599831 1.524355e-06 -0.006329506 -0.0030753175 -0.015556664 0.013117331 -0.011440986 -0.0048173056 0.003992844 0.010499814 0.015975969 -0.0074928817 0.010050457 0.010655495 0.0029893436 0.004268788 0.01946001 0.01466127 -0.0019100123 -0.0073545612 -0.0024087732 -0.011655317
업 -0.0050785234 -0.007862787 0.007168637 0.0060059475 -0.0028669746 -0.016829591 -0.0018268462 0.0076211556 0.0059191743 -0.0026405123 -0.0015913552 -0.011142921 0.0032935203 0.0040408224 0.0016860921 -0.011155517 0.0026846745 -0.01325652 0.0023952648 -0.012743775 0.0010796258 0.008459434 0.0072962414 -0.010992708 0.0064298506 0.0022418925 -0.010716067 -0.0006889798 -0.010876263 0.011610409 0.0074725607 0.008984332 0.0063197836 -0.0023439266 -0.013047108 0.01871292 -0.0014195195 -0.015890589 -0.0048673246 -0.018185427 0.0011110676 -0.01775038 0.0075244866 -0.000736659 0.020443542 0.0038004504 -0.00829136 -0.001052541 0.0034854726 -0.0038743443 0.0134911155 0.0049613994 0.013666343 -0.002074797 -0.012416759 0.012993993 -0.008609828 0.011481892 -0.011077155 0.011128891 0.0063834107 0.0015314816 -0.00037962667 -0.008155698 -0.0011508788 -0.0044035558 0.007385782 0.0077892086 -0.0059225815 0.017986426 -0.009742421 0.006064481 0.0009174646 -0.0010157697 0.016161276 0.010948394 -0.0021805738 -0.0028107895 -0.0011979402 0.013795272 0.005807015 -0.0036375232 -0.012545502 0.0034372115 -0.006235588 0.0049099196 -0.0062952507 0.0037531552 0.018564815 0.0056563844 0.018567763 0.01002553 -0.011500575 -0.004868844 0.011260283 0.0013006439 -0.0019935735 -0.0043301797 0.0029906584 -0.016158357
사업 0.003109904 -0.0070146187 -0.009860536 0.0024566513 -0.00048528297 -0.013105031 0.0017887132 0.024697639 0.004600743 -0.007060677 0.0026888456 0.00026322887 -0.014183083 -0.0015626483 0.0049887807 -0.00042443507 -0.0024098486 -0.017435323 -0.00038409006 -0.027116947 -0.00558924 0.0039787097 0.009400712 -0.009810714 0.001703852 3.010936e-05 -0.002378543 -0.0032276153 -0.008532092 0.010539468 0.008646238 -0.006318506 0.01306296 -0.0023220454 -0.0044219727 0.0060835527 -0.010662629 -0.016738784 -0.0009986177 -0.017263524 0.0011864614 -0.019502314 -0.005510294 -0.0079803765 0.02113471 -0.009386431 0.0011114074 -0.0056857495 0.004317985 0.014979104 0.0015599634 -0.012513937 0.005293629 0.009521311 0.005154847 0.0049887802 0.0016521772 0.0076836813 -0.019705227 0.012663608 -0.0063731945 0.0028242036 0.006265693 -0.0052195024 -0.016384881 0.0059383893 0.016477264 0.019680051 -0.020441301 0.017236358 -0.0015216367 0.0004334565 0.015588366 -0.008705444 0.00673396 0.00099215 -0.0011779752 0.00030368252 -0.012835552 -0.0012009912 0.005515262 -0.0052221585 -0.01752927 0.01790168 0.0074213087 0.0054091513 0.00029773664 0.011207005 0.009629236 0.0026265902 0.004399342 0.009298086 0.0016546055 0.0008522927 0.011256701 0.01511035 0.015655544 -0.0043576546 0.0157166 -0.0128255775
스타트 0.0019760444 -0.0019771745 -0.0065510087 0.005139357 -0.0062684184 -0.017168725 0.010156125 0.026477687 -0.010110639 -0.009313342 -0.009992605 0.0006561 -0.01717555 0.0103074275 0.0004905227 -0.0045406744 -0.0006004832 -0.016150048 -0.0020441406 -0.011146094 -0.00700403 0.003677976 0.0048787156 -0.0004962703 0.0046163406 -0.0031980502 0.0020995126 -0.015417316 -0.012085327 0.012601712 0.014414811 -0.006447346 0.0019293734 -0.006573665 -0.0110134985 0.015316578 -0.010962049 -0.0049328725 0.00051909586 -0.020357134 -0.0105335275 -0.012494527 -0.002732455 0.001734 0.021711932 0.0010313723 -0.005797414 -0.0022883378 -0.002651509 0.0048972615 0.0038428067 0.0051504737 -0.0016045541 -0.0054509486 -0.0011132483 0.0107710045 -0.007932442 -0.002908873 -0.014997694 0.002436656 -0.008882283 -0.0033370159 -0.0011052984 -0.0026155913 -0.010383336 0.004450898 0.00966878 0.0065796394 -0.008011512 0.01216639 0.00023296101 0.0014272141 -0.003543675 -0.0035053452 0.0179689 0.0021279694 -0.0024710228 -0.0026309856 -0.0009146475 0.0034140788 0.0093741175 -0.008506623 -0.0016399906 0.00025452927 0.007268063 0.0033778478 0.0030129931 0.0047201384 0.019331004 0.00208713 0.0046787774 -0.00078144565 0.004120145 -0.0028278388 0.00021231265 0.013449425 0.0008536362 -0.013894643 0.016118644 -0.009011008
성장 -0.003858517 -0.0027383682 -0.006167497 -0.0014694444 -0.0068517094 -0.014384748 -0.0027891411 0.023345226 0.003719383 -0.0032715497 -0.0026037074 -0.012942292 0.0022794213 0.008718436 0.0015153365 -0.012282298 -0.0018408963 -0.0029402066 -0.00676967 -0.0104921935 0.009589289 0.0085441 -0.002592511 0.0025794222 -0.005291742 -0.0059529995 0.0034279656 -0.016769478 -0.008427959 0.000999489 -0.0013534598 0.00041464632 0.008442803 -0.0032491651 -0.014051667 0.0135507835 -0.0058510858 -0.015617438 -0.004067114 -0.01261871 0.0071346355 -0.0072794175 0.008021031 -0.0114049325 0.013774846 0.006108865 -0.0019718637 -0.0064746244 0.004570742 0.003662169 -0.0041977526 -0.010508522 0.0045232954 -0.00039003883 0.0064388793 0.00562735 0.005155741 0.0041530663 -0.0027816102 -0.0049462817 0.00261677 -0.00072138023 0.0035381091 -0.0073306086 -0.015155785 0.011485415 0.0040679905 0.010057298 -0.014602067 0.012641571 0.0053940397 0.0003128409 0.011186199 -0.003659995 0.014517254 0.0156483 0.0016046473 -0.0015127276 -0.016714562 0.012960983 -0.0032077865 0.0020503274 -0.010331548 0.016116094 0.0066946424 0.0028752114 0.0033768117 0.0144055765 0.010639354 0.0030000661 0.008253771 0.0042709443 0.0033098792 -0.0010469013 0.005072296 0.017371977 -0.0047476706 -0.0084476685 0.001840552 0.00014129508
교육 0.005548567 -0.0055397428 0.004083341 0.0030376676 -0.010842519 -0.0120560005 0.00399517 0.009489904 -0.0037504951 -0.005158083 0.0004326579 0.0036146035 -0.0074731843 0.004003828 -7.419562e-05 -0.0064603114 -0.006070106 -0.0062755053 0.0003212244 -0.0066684205 0.007060294 0.0075085717 0.00732772 -0.010880656 -0.0033946894 -0.0053103487 0.0029617045 0.00041290664 -0.0117970435 0.0036569966 0.012187249 0.0037488197 0.0037238293 -0.004398104 0.0030686245 0.00019106438 -0.008693642 -0.013760438 -0.010401457 -0.01621209 -0.009476448 -0.006864925 -0.0038931954 -0.0041322485 0.01572821 0.0029886076 -0.0011775238 -0.005058033 0.013444924 0.0050004865 0.00876704 0.0050332835 -0.0062063644 -0.0076918886 0.006928938 0.009810091 -0.0031055186 0.006938865 -0.015297202 -0.0019083387 -0.008061861 0.008080469 -0.0012195554 -0.014789176 -0.01510506 0.008968922 0.0048387954 0.0022033965 -0.009967147 0.0074379463 -0.00809583 -0.0005413221 0.009021374 -0.0020520235 0.0030628098 0.0089642955 0.007360268 -0.009464719 -0.014854793 0.0098318225 -0.009413108 0.00072762556 -0.017866325 0.0168677 -0.0059297956 -0.0054682125 -0.0005158088 0.006971283 0.01568609 0.0055259797 0.0077853515 0.009423177 0.0026489224 0.002285932 0.0017107836 0.008486737 0.007151039 0.0033368387 0.0014500177 -0.015650759
레노버 0.0024944118 0.011406455 -0.00855619 0.002513399 -0.0065458165 -0.0035459092 0.015858335 0.01439416 0.0014062867 0.0068161213 -0.0014096609 -0.014257651 -0.0028092342 -0.0013085479 -0.0016835284 -0.0010985481 2.6571743e-06 0.0012692469 -0.004794434 -0.014582395 -0.0018198809 -0.004960329 -0.0068727885 0.001285029 -0.0093804365 0.0029449454 -0.0016971213 -0.014966028 -0.011214446 -0.00329118 -0.0011045344 0.0022620526 0.012931032 -0.0045791105 -0.011644481 0.016562408 0.0068423506 0.0009975515 -0.015022743 -0.009315538 -0.0073651783 -0.00146677 0.006333563 -0.0046579293 0.017383479 -0.008607361 0.0014463913 0.0003830202 0.009303773 0.010888778 0.0018494325 -0.00044503852 -0.0027217516 -0.0053557777 -0.0005897456 -0.002567233 -0.0008030877 0.003510432 -0.0036460476 -0.0018415399 -0.0022492786 -0.0032624248 -0.0039624553 -0.008400005 -0.00512828 -0.002597276 0.005910112 0.017898845 -0.010849002 0.005777478 0.0023493296 0.0029386086 0.0045458744 0.0062162355 0.015135271 0.009915081 0.005347173 -0.0021666065 -9.459744e-05 0.008505625 -0.005983469 -0.0058305454 -0.009661494 0.00078012276 0.0016053361 -0.007919286 -0.0007715382 0.012728905 0.011885432 -0.00037734493 -2.0641091e-05 0.0105572855 0.0029219193 0.0060814917 0.016723292 0.011518732 0.010767242 0.003403726 0.004835925 -0.0063091638
디지털 -0.0010486314 -0.005557389 0.0032148035 -0.0008812449 -0.0053466475 -0.014382893 0.015741244 0.021022245 -0.0056067947 -0.0026655742 -0.009263016 -0.0090044085 -0.011828927 -0.0038775573 0.0010615595 -0.0028214594 0.0034895805 -0.0037810968 -0.003879516 -0.021817043 -0.006747367 0.010967189 0.011007649 -0.010479231 0.0015465351 0.010195212 -0.012086576 -0.012709596 -0.019573137 0.006404955 0.005693953 0.004191352 0.013584694 -0.0061626267 -0.018862458 0.012156323 -0.011798023 -0.019538982 -0.01578329 -0.017598022 -0.0011710535 -0.01007203 -0.0017644722 0.0077127567 0.021990458 -0.006892222 0.0046364246 -0.014394784 0.0032624775 0.008795679 0.005347776 -0.009556503 0.0047330614 0.003203056 -0.013721408 0.0039462177 -0.008669275 0.0066190213 -0.015754074 -0.0013704596 0.005655336 0.0012406402 0.0045766146 -0.004065262 -0.016117752 0.011440716 0.0014674157 0.0078153545 -0.018618949 0.012663623 -0.01400786 0.0108671365 0.01196053 -0.011970068 0.01492196 0.014826756 -0.005099235 0.0045854086 -0.017471049 0.014011409 0.0033794104 6.82267e-05 -0.02040137 0.009746845 -0.002476166 0.0022076613 0.00904581 0.008702793 0.0022885932 -0.013389904 0.010043782 0.010541613 -0.0027042737 0.00087612367 0.019418139 0.011865194 0.01236907 -0.0024561903 -0.0010767863 -0.009174187
산업 -0.012053951 -0.0042177453 -0.0058748997 0.011985237 -0.0031717236 -0.007489751 0.007300094 0.019463819 -0.001627096 0.0025578847 -0.009520282 -0.012636179 -0.015351488 0.0047428184 -0.0069566797 -0.019118218 -0.007582399 -0.006109958 -0.0025190674 -0.017106872 0.010496275 -0.0006409029 0.008858199 -0.002970369 0.001882883 -0.0032082128 0.0023186095 -0.019062445 -0.0058598807 0.0109967375 0.011958792 0.0077922517 0.011772618 0.004953495 -0.005183062 0.015823299 -0.0055042673 -0.0068631554 -0.0033879196 -0.026347492 0.00091728463 -0.01400998 0.0046616145 -0.0076490967 0.013008424 -0.0015126355 -0.0017670635 -0.013788818 0.013542443 0.0053351326 0.013129446 -0.004172857 0.012623487 -0.0021187568 -0.008767276 0.01478889 -0.0033929697 0.009471639 -0.025127912 0.010815633 -0.000590898 0.0008623821 0.0047440287 -0.015253497 -0.020003563 -0.0045713605 0.014614629 0.020280428 -0.021459386 0.024856586 -0.00435849 -0.0028230133 0.0066561373 -0.0019599795 0.004475003 0.012156695 0.008855904 0.0065302183 -0.008051887 0.009620035 -0.00380769 -0.005985646 -0.0069907736 0.0066637993 -0.0042246794 -0.00082910265 0.007201988 0.009145219 0.017881213 -0.004096573 0.010448597 0.003238956 -0.011789534 0.007439596 0.004263778 0.02157094 0.0047824504 -0.017832315 0.0037676506 -0.0012865406
글로벌 -0.0050458345 0.0081815645 -0.011819252 -0.0046802643 -0.007304824 -0.012516566 0.0002343173 0.010360035 -0.013145742 -0.00044280934 -0.00023932077 -0.016519936 -0.01336986 0.002351852 0.004090052 -0.016625362 0.009205585 -0.01960489 -0.0006044801 -0.009926189 0.006106321 0.011566474 0.011957101 -0.0015849143 -0.010235852 0.0059683565 -0.014060101 -0.015986148 -0.0046568247 -0.004467287 0.0040115295 -0.001152211 0.007584116 0.008198275 -0.007966295 0.015756365 -0.0061973957 -0.0069718803 -0.013427307 -0.0198333 -0.008122089 -0.010902405 0.0048285914 0.0024747634 0.009451949 0.0008380182 0.0038123438 -0.011341565 0.00081252714 0.00594007 0.0010254502 0.002931738 0.012322391 0.011376258 0.0052198316 0.001069468 -0.0014191534 -0.004846547 -0.019926194 -0.0023474435 0.0037032145 0.0013283786 -0.0048222584 -0.0023202368 -0.011678813 0.0038650008 0.00644371 0.008228854 -0.014756673 0.020355588 -0.0043745358 -0.003241502 0.011031245 -0.00398823 0.0061766244 0.016110387 -0.0011134951 0.007492112 -0.014652558 -0.0027253774 -0.005111666 -0.0037447407 -0.012670726 0.009755381 0.0030061642 0.007257011 -0.0011271202 0.015562532 0.0097491145 -0.004054244 0.010365782 0.0069166864 -0.007784523 -0.00077843806 0.011016305 0.013930507 -0.003029371 -0.000940986 0.0053438502 -0.0106654195
세션 -0.00798157 -0.0028354193 -0.006812045 -0.005450835 -0.0025001788 -0.019635133 0.0018212154 0.010336067 0.006207778 -0.0008131618 -0.014468425 -0.0014438909 -0.01521258 -0.0011532679 0.0037781962 -0.014362014 -0.007694323 -0.016817017 0.0026123133 -0.008349781 0.004266838 0.0071864817 0.0078298785 -0.00838959 0.007148428 0.0075650373 -0.0008213725 -0.00054140144 -0.01822444 0.0040275315 0.017908724 0.0009805121 -0.00263614 0.00033170477 -0.011452095 0.0070018787 -0.0050649825 -0.0028658977 -0.006066014 -0.0116503695 -0.004137062 -0.0020102297 -0.006859924 -0.011224376 0.008060072 -0.00816945 -0.008776334 -0.004557375 0.0065147015 0.0077118585 0.01000272 -0.0066433446 0.006385816 0.0020317992 0.0037165778 0.016517425 -0.0030989812 0.0035942227 -0.019985484 0.0008873949 -0.006919169 0.0012080299 -0.0032682908 -0.013475563 -0.009711964 0.0054528033 -0.00014467379 0.012412442 -0.005834854 0.01552217 -0.009064637 0.011418503 0.01514137 -0.0045108 0.009124612 -0.0019080037 -0.0026503834 0.00022879436 -0.0055749537 0.0045079915 -0.009050832 0.0053692013 -0.018495925 0.01936453 0.0034558002 -0.0051421183 0.0033679197 0.018376978 0.0043931524 -0.0110501135 0.020010583 0.010302509 0.007125527 -0.0075266133 0.008247617 0.018226804 0.003947764 -0.008151418 -0.00043580495 -0.012727786
한국 -0.009411097 0.010494955 -0.0035254057 -0.004450662 0.006565138 -0.013772538 0.0050685955 0.015708512 -0.00048773282 -0.0044142012 -0.006355631 -0.009303293 0.0020200373 0.007632345 0.0016351677 -0.0123653365 0.0043241233 -0.008213715 -0.0109558115 -0.021881642 -0.0029196779 0.006758024 -0.005023662 -0.00913788 0.005658604 -0.0034122525 0.0035564157 -0.008163354 -0.014714417 -0.0018772588 0.008114637 0.006569836 -0.002650718 -0.0033981416 -0.0152402595 0.01565189 -0.0053478684 -0.005686653 -0.0069145383 -0.022562878 -0.0018236684 -0.00920905 0.0033347188 -0.010372279 0.0047075544 -0.007263794 -0.00072794367 -0.008629825 0.0048373747 0.009891522 0.009506115 -0.0022679092 0.00082490826 0.0026401447 -0.009332802 0.0011365304 0.0082371775 -0.001638686 -0.022529295 0.009051585 0.0084663145 0.0008230731 0.003758216 -0.012359457 -0.0145173995 -0.006006507 0.0005987969 0.000544382 -0.016039027 0.019048624 0.0035853076 -1.1343022e-05 0.005056624 0.003909 0.008833499 0.0016559089 0.0047449083 0.0021314793 -0.0126705365 -0.000946888 0.009372436 0.007735826 -0.018465603 0.004099491 -0.00034465187 0.002430088 -0.008091888 0.019715302 0.004260286 0.0008951571 0.019035188 0.0093102055 0.001629315 -2.7597858e-05 -0.000767915 0.011206683 0.0040562716 -0.015955383 0.013023725 -0.0138376625
방안 0.0029720734 -0.0030228137 -0.010877262 -0.006077765 0.0048272316 -0.014644664 0.010487907 0.012212139 0.006566251 0.0073299245 0.004781252 0.0031599253 -0.013612688 -0.009117785 -0.0050151474 -0.006326393 0.0059474595 -0.0044414764 -0.006063581 -0.008548112 -0.0032647615 -0.0029495806 0.0071219644 -0.013182819 -0.0014055525 -0.0047681653 0.003755222 -0.01108263 -0.0044617336 -0.003969151 0.01659504 -0.004040463 0.0062545054 0.005185364 0.001941954 0.001981853 -0.0067979577 -0.014236764 0.0016696083 -0.017668892 0.004737506 -0.009102274 0.0071523637 -0.0075644203 0.009850856 -0.0006406049 -0.011763815 0.0048229033 0.001022553 0.011227295 0.0038789238 0.0010527007 0.005683294 0.01035195 -0.011314289 0.014971835 0.008185182 0.0033221964 -0.006494272 0.008288871 0.0041275676 -0.0023558766 0.0041896095 -0.0065111117 -0.0037201685 0.010755713 -0.00075291615 0.008215284 -0.017257133 0.0071834647 -0.013878103 0.004499516 0.002664816 -0.0038847178 0.012961221 -0.0021875259 0.0031066767 -0.0024319119 -0.011213488 -0.0040210285 -0.008445767 0.008378641 -0.015976034 0.012904006 -0.0053539695 8.425458e-05 0.0033446245 -0.00041635646 0.0022499124 -0.010857312 -0.0013871986 0.0018507967 -0.005341594 0.002612883 0.007138143 0.00097408163 0.0006399255 -0.007821484 -0.0015151976 -0.011858173
솔루션 -0.005827434 -0.00605949 -0.010415047 -0.0036514911 0.0022801147 -0.019392403 0.003379776 0.023838742 0.0031474407 -0.006197201 0.0005139887 -0.014804361 -0.0069313175 0.007135642 -0.0025873256 0.0018810158 0.0010578482 -0.0051781656 0.002157753 -0.025962614 -0.00566502 -0.002691764 0.002262228 -0.011198172 -0.0030288133 -0.008060872 -0.0046290834 -0.009477189 -0.0027109708 -0.0059385 0.0054870835 0.008214994 0.013210826 0.0006174652 -0.007929702 0.003488553 -0.0018300503 -0.018246744 -0.0133359665 -0.015246822 -0.00066904543 -0.0041304417 -0.00969052 0.00015126709 0.013489393 -0.0057620327 -0.0037198055 0.0009246752 -0.0024268727 0.0063432553 0.009231187 -0.0034991105 0.007014896 0.009852386 0.002605479 0.011777119 0.0075859483 -0.0052783648 -0.005950929 0.009572987 -0.0055636354 -0.002913304 0.007905494 -0.0032769414 -0.02106312 0.0042117126 0.008172246 0.011374742 -0.0038900618 0.0035841984 0.003312543 -0.0073965327 0.011954413 0.0056311134 0.0040025664 -0.0020571735 0.008848436 -0.008757526 -0.017792512 0.00317988 -0.0072334167 0.0090717655 -0.002742541 0.011146781 0.005998399 0.011286925 0.005680394 0.015322683 0.015779326 0.0023236936 0.015164655 0.01488152 -0.010201805 0.011937836 0.018572971 0.020629602 -0.0038285772 -0.009958372 0.0064044194 -0.002189508
대표 -0.011494601 0.0019337329 0.003683834 0.0138156805 -0.0047301627 -0.010413228 0.013485615 0.016817749 -0.001780046 -0.009115148 -0.006057953 -0.00278913 -0.002919559 -0.008959465 -0.0046183052 -0.004626235 0.0028544317 -0.015657961 0.00061209453 -0.015179616 -0.007796304 0.014622593 -0.00425816 -0.0073412894 0.006567834 0.0013777531 -0.010669625 -0.008939005 -0.014310093 -0.0034465208 0.001488261 0.00694407 -0.005027931 0.006752812 -0.014942925 0.01574231 -0.0076647885 -0.01657363 0.0003623927 -0.0262609 0.0010257893 -0.012762762 -0.006909826 -0.009616032 0.020016603 -0.005290159 0.0005146018 -0.015241375 0.006352206 0.0045235716 -0.00048899354 -0.008211018 -0.0045544864 -0.0014916189 -0.006663048 0.0063480292 -0.005641223 -0.0066236253 -0.009539161 0.0045557683 0.006550418 0.0040340405 0.01027025 -0.01314052 -0.020951694 0.0045616888 0.000468556 0.017070958 -0.003159807 0.012540777 0.001326453 0.010773673 0.01004086 0.0010173963 0.018009726 0.009183871 -0.005244793 -0.008295655 -0.011770039 0.0037971437 0.008633708 -0.009530484 -0.013804206 0.020096023 -0.0033329905 -0.007447025 0.0023662047 0.0055095437 0.0057019535 -0.010814106 0.010996114 0.016316546 0.0011838946 0.0113521395 0.019486392 0.016445164 -0.00046487007 -5.3219486e-05 -0.0031092453 -0.011965659
강화 0.0052427906 0.0094503695 -0.0076470505 -0.0043418873 0.0066368007 -0.0140913045 0.0019413468 0.023119202 0.0020610348 0.004100689 -0.0073582255 0.0025813882 0.0026058585 0.0077328854 0.009657561 -0.012420571 0.002065932 -0.010649182 0.0022761233 -0.0059564346 0.0053853313 0.008240171 0.009688567 0.0023472738 -0.002331393 -0.008080481 -0.0067046112 0.00066653383 -0.01359668 0.0037469217 0.012846778 -0.005462292 0.011629284 0.0034965116 -0.005543542 0.016801504 -0.0013605249 -0.008199343 -0.014635417 -0.0045786705 -0.010468098 -0.00043640067 0.004926311 -0.0019536049 0.0032498634 0.008978402 -0.0047026323 0.0007840158 0.00048467144 0.00017661016 0.004495904 -0.012867492 -0.003109274 -0.00785613 0.001825673 0.007805402 -0.0017666451 0.007067252 -0.014450063 -0.00238714 0.002899097 -0.0054539405 0.0022061164 0.0012724361 -0.01080278 0.008833689 0.0127768945 0.0057158414 -0.015013277 0.019082185 -0.0032329764 0.0016832751 0.005986364 -0.008741701 0.010880634 0.0033760704 0.0060498426 -0.0045134635 -0.009212305 0.0073306975 -0.007597959 -0.0026990508 -0.018509565 0.010879235 0.00027893033 0.0036894751 0.0016765553 0.009350443 0.0115124425 -0.0048025143 0.015183999 0.0047694854 -0.0075034075 -0.0029146231 -0.0005416075 0.0017533259 0.0069668633 -0.0018350572 -3.893952e-05 -0.016044129
통합 -0.009319139 0.0064807627 -0.011137232 0.008412483 0.0044667996 -0.0049376064 -0.0011816755 0.01897951 -0.009223899 0.008770528 -0.010467952 -0.009194849 -0.0006894029 -0.00045276183 0.005655567 -0.010912298 0.0062261117 -0.019251334 0.0019221677 -0.017565569 -0.005049233 0.0042322576 0.0020284846 -0.0045325654 -0.0045786174 -0.008937282 -0.012768373 -0.015334576 -0.017486753 -0.0019437291 0.016932877 6.3954634e-05 -0.0041123526 -0.0037744578 -0.004384812 0.006223652 -0.0041855704 -0.013650693 0.0006139246 -0.0232184 -0.0077883867 -0.0015533684 -0.0074849697 0.00062915054 0.011788261 0.008840888 0.000751289 -0.0025306926 0.0067049726 0.0076794447 0.0069887983 -0.0076034884 0.00781266 0.0076374533 0.00511999 0.006938874 -0.0018263524 0.008843949 -0.021251328 0.004840755 -0.006252203 0.005571982 -0.0071785087 -0.005159644 -0.0014721972 0.0010007895 -0.0009183503 0.001617167 -0.0069520855 0.004896881 0.00079918216 0.0009361336 0.013304024 -0.0043139393 0.0012583039 0.0013752816 0.0033099384 -0.004943097 -0.0022576929 0.000455488 -0.0062935436 0.0012158892 -0.014763783 0.0014914294 -0.007305002 -0.0005597581 0.00082968344 0.013754169 0.016455913 0.0030057246 0.015638795 0.008127735 -0.008224814 0.011836 0.008933474 0.0152529245 0.0036690547 -0.00019912515 0.011113137 -0.013385947
저작권 -0.0062593096 0.0019710714 -0.0004239218 -0.004116981 0.0028539333 -0.00997367 0.007933852 0.016897533 -0.012361317 0.008391806 -0.016582722 -0.015710901 -0.003669407 -0.00767837 -0.002314211 -0.010676167 -0.00019187602 -0.018615443 -0.0011186111 -0.01889483 0.004445776 0.004580701 0.011587804 -0.014729282 0.0022810602 -0.004785783 -0.0039704707 -0.017817922 -0.013335671 -0.0028911722 0.006857307 0.012001507 0.006708778 0.0045362003 -0.016452756 0.016302295 -0.012042731 -0.0145783825 -0.013129413 -0.025343215 0.0016612788 -0.015007866 0.0022416338 0.0022363877 0.0076252557 -0.0020092612 -0.007673527 -0.015437225 -0.0054161903 0.00786328 0.0102800485 -0.005339309 0.00011476544 0.005729372 -0.0026926266 0.00053349684 0.0064209476 0.01066334 -0.024040874 0.0061732237 0.005959569 -0.0010301961 0.0016154456 -0.015330493 -0.0069135404 0.010701075 0.011968761 0.007966054 -0.014285667 0.008624593 -0.016720714 0.009967242 0.0063202926 -0.0055036014 0.017033942 -0.000961512 0.008948001 -0.007186768 -0.016788892 0.009751304 -0.004795533 -0.0032968398 -0.018831726 0.007799825 -0.004883572 -0.0021494303 0.010076312 0.021942718 0.011894047 -0.0060395673 0.006551989 0.017565086 -0.008117325 0.009175526 0.020453943 0.018988553 0.0059443433 -0.001654392 0.014658569 -0.011674636
윤리 -0.0031229549 0.0090365475 0.0031799763 0.0047583687 -0.00014986611 -0.021946877 -0.00013568219 0.018701138 -0.010435054 0.0003827516 -0.01259 -0.00993761 -0.0013800451 0.010907519 0.0084716985 -0.007304805 -0.0012809586 -0.011598395 -0.008783895 -0.0319192 0.007738166 -0.0026824689 0.008098522 -0.009879503 -0.009434434 -0.0012141162 -0.013175557 -0.004165109 -0.019214213 -0.0049385983 0.01724561 0.0072839484 0.009375641 0.0052481242 -0.015636597 0.0077726077 -0.002165573 -0.004855932 -0.013259718 -0.024339678 0.0015291111 -0.0061952374 -0.006664391 -0.0068488885 0.013561944 0.00038851818 -3.744832e-05 -0.0011094989 -0.003708123 0.014946677 0.004826287 -0.009738299 -0.003978843 -0.0038797976 0.004629066 0.013912612 -0.008870226 0.0061114016 -0.025356738 -0.0019400279 0.004193139 0.0036382838 0.0035355664 -0.0036930523 -0.008581073 -0.0012596737 0.014599685 0.016136961 -0.01251757 0.022926673 -0.014860886 0.0004196717 0.008066336 0.00092063757 0.010159567 0.017197559 -0.0017773956 -0.009350156 -0.019985396 0.0016496168 0.008880051 -0.0051292586 -0.018854825 0.021332378 -0.009879124 0.004121459 0.0067309677 0.0065606195 0.013386623 -0.0076743276 0.019091154 0.006470364 -0.010275808 0.013838115 0.008555273 0.02268239 -0.0012751211 -0.001245685 0.004942329 -0.016367842
선도 -0.0046889693 -0.00044220756 -0.004029784 0.0030071712 -0.008672765 -0.016410723 0.0044226716 0.0268607 0.0014064487 -0.0007469725 -0.011822995 -0.0023945381 -0.016462982 0.0019333055 0.0044839242 -0.009799138 -0.0031216296 -0.019475646 -0.013733724 -0.011441296 0.0042600604 0.004913361 0.013583472 -0.013107303 -0.0025554271 -8.22788e-05 -0.013310987 -0.0194511 -0.0030447266 -0.00030748144 0.0016615281 0.010188222 -0.0023253008 -0.00026294563 -0.0076509938 0.007199791 -0.011361489 -0.0151151605 -0.01521029 -0.016493632 -0.005103141 -0.0109287575 0.0024673904 -0.0041726497 0.022095788 0.006314794 -0.0044814055 -0.0060108877 0.0051921504 0.013353701 0.014695041 -0.0074986694 0.0028798908 -0.0012467108 -0.0041243252 0.0024148037 -0.0025067667 -0.0056899562 -0.014428457 0.007348258 0.003991269 -0.0019062831 0.008079487 -0.017518666 -0.002194354 0.00387401 0.012067378 0.015721168 -0.011458189 0.014520558 -0.0050367843 -0.007455357 0.0030796428 -0.007276095 -0.00019436242 0.011597087 0.0076673036 -0.0023434402 -0.002867877 0.003726323 -0.0010862688 0.006030195 -0.02013045 0.0039788443 0.005276093 -0.0052205296 0.008940177 0.016937448 0.0028655773 0.003928779 0.017468533 0.0024336746 -0.011377884 -0.0056751347 0.01469517 0.018761143 0.0040676533 -0.005475183 -0.0015250756 -0.012168037
확보 0.0010433082 -0.006706668 -0.011767593 0.0056974427 -0.010957151 -0.021593332 0.013361277 0.03015431 -0.0124042295 0.008495817 0.0014136275 -0.003942748 -0.01267545 0.0103906505 -0.007214458 -0.012854093 0.0032774515 -0.020511677 -0.015792118 -0.018804656 0.008699978 0.0009196603 -0.0002452185 -0.0013528857 -0.0032557733 -0.008515972 0.00056955294 -0.014920457 -0.008084313 0.0066932514 0.019694649 0.011172935 0.012106028 -0.005676359 -0.009937686 0.011235985 -0.00275045 -0.003533013 -0.002697724 -0.029440867 0.00934382 -0.013292041 0.00016971651 0.002798285 0.008887122 -0.0014838683 -0.003761029 0.0009823721 0.009028108 0.005377015 -0.0018699474 -0.010461754 0.013690547 -0.0076135625 0.005151997 0.0098536825 -0.0018667234 0.012584949 -0.0073179197 0.015120386 0.009074036 -0.008842719 0.009480112 -0.02089238 -0.021753173 -0.0052628336 0.013228439 0.02014374 -0.020339504 0.011073005 -0.0097628115 -0.0020185397 0.0055069663 -0.00013394513 0.0139709525 0.005541857 -0.000773472 -0.0022601893 -0.015122574 0.009280609 0.009113903 0.007898809 -0.021118244 0.005811554 -0.011597242 -0.004075207 0.004381803 0.007133262 0.014272473 0.0039466955 0.016173426 0.011768556 0.0055563846 0.010087448 0.010970738 0.0072185895 0.005493896 -0.00067906454 0.015562885 -0.012154651
발표 0.0072497097 0.00418179 0.0032423842 -0.0019617586 0.0027456903 -0.011018243 -0.00288988 0.02197485 -0.012643252 -0.006561034 -0.0035520492 0.0023067305 -0.008827705 0.007472784 0.0055513848 -0.002775226 -0.005047663 -0.0048800805 -0.012867304 -0.021117352 0.005999576 -0.00356978 0.0090578105 -0.0076257195 -0.003279321 -0.0075231283 -0.011021822 -0.012446048 -0.000625371 0.008281154 -0.0009956202 -0.0048381295 0.0074153338 -0.0063098203 -0.0020275642 0.0155506 -0.012304162 -0.0011774419 0.0021363334 -0.017601911 0.0016334758 -0.015296284 0.0057586106 0.0060345717 0.015893623 -0.009528843 0.0012710389 -0.008147224 0.0015945578 0.012071833 0.0071697417 -0.0006257203 -0.0024130975 0.0068592555 -0.0076407827 0.007742199 0.0058420985 0.0064266897 -0.0056576976 0.0017178828 0.0036895801 0.008446964 -0.0018082095 -0.0032530183 -0.020331768 0.011540814 0.012358468 0.015187384 -0.005946022 0.01521854 -0.0089867 -0.004463311 0.003007116 -0.002438411 0.0049298774 -0.0015616132 -0.0040827184 0.008410355 1.0777949e-06 0.009932921 -0.004606693 0.00083214237 -0.019075947 0.016497985 -0.0014791737 0.0089221895 -0.004767245 0.0078001423 0.012741235 -0.00025565238 0.0033823526 0.0007666202 -0.0006238162 -0.006425777 0.01528708 0.0163467 0.0014746828 -0.012125329 -0.0019914308 -0.008158443
마련 0.0037229322 0.0016878804 -0.010404054 0.01343824 -0.010869281 -0.007374477 0.013913536 0.020333067 -0.013005064 0.006239253 -0.015177746 -0.0125916535 0.0021405807 -0.007846119 -0.0070050904 -0.012882454 0.004932862 -0.009048986 -0.010731375 -0.022338618 0.009042278 0.015296505 0.013465564 -0.0035628579 0.0009336683 0.0016598053 -0.0040020696 -0.005280966 -0.008171861 0.0036153847 0.006270791 -0.004196667 0.012102216 -0.0033716448 -0.0071075913 0.0095205335 -0.00721398 -0.016044036 -0.0030607258 -0.023719374 -0.0076494752 -0.013603666 0.0046756295 0.0041008433 0.012104799 0.0063877455 -0.011958824 -0.010011896 -0.0034898317 0.00042956468 0.012815739 -0.01513775 -0.0038606105 -0.0077988673 0.0049349517 0.0064780596 0.000105309504 -0.003099464 -0.017566549 0.006231626 -0.002325232 -0.0063808644 -0.004414002 -0.007489699 -0.02175968 0.0046424004 0.007733923 0.019902725 -0.012358957 0.018526543 -0.013726489 -0.005369292 0.011902946 -0.0037654242 0.0037249092 0.005635221 0.011438364 -0.009264872 -0.014000288 0.0053434176 -0.0008517453 0.009677452 -0.013962686 0.004033111 -0.009912913 -0.0083256 -0.007236793 0.005549323 0.0051376917 -0.005752158 0.010734308 0.0046095294 -0.00092929 0.007291397 0.019895706 0.0076680384 0.011067887 0.0005340161 0.0032224737 -0.015013465
영어 -0.0054815686 -0.0057882504 0.004438002 0.0119967405 0.006827662 -0.01749164 0.010097672 0.018054187 0.0029675185 -0.008480901 -0.0049355384 -0.012081195 -0.0135432575 0.0027327253 0.010670223 0.0012601983 -0.006037238 -0.0046641175 -0.007666034 -0.0033606132 -0.00871447 0.01339854 -0.0046016965 -0.009915971 -0.00067674054 -0.00013463607 -0.012108989 -0.007938312 -0.0077833664 -0.0043027685 0.011989178 0.004853726 0.0113631105 0.009022762 -0.012809739 0.011746635 0.0032620428 -0.0013881258 0.0017478894 -0.017019423 0.0046520685 -0.0061906767 0.00015277063 -0.008126025 0.010983604 0.004755457 -0.012038468 0.0056176377 0.006124198 0.004498359 0.00030787443 -0.0035140985 0.009094646 0.006690443 -0.008417833 0.014536262 -0.002074108 -0.006018851 -0.0012776345 0.009203828 0.004103125 0.00874902 -0.0062699146 -0.012260767 -0.010442126 -0.0011425583 0.005209367 0.0065507255 -0.016223704 0.009972373 -0.0020454822 0.00067717786 0.009406843 -0.0018885733 0.012090262 0.004019216 0.010646098 -0.0016451917 -0.0034162353 -0.00057822035 0.0059265536 0.0031598848 -0.007302625 0.01709867 -0.00947364 0.011075196 0.0013526153 0.0051208604 0.0033717665 -0.011878111 0.0047268374 0.009256883 0.0046069184 0.011281975 -0.001976384 0.016784111 -0.004450084 -0.0011517649 0.012567947 -0.0078881495
분석 -0.011994443 -0.0060943435 -0.001590715 0.0036705714 -0.011914569 -0.011577384 0.0105031105 0.025491636 -0.00040820322 0.00352397 -0.018096514 -0.002837326 -0.0036454252 -0.007333913 -0.0017196385 -0.008347023 0.00075070735 -0.013070043 -0.011515081 -0.020967761 0.005203907 0.005076437 0.004961543 -0.0031779998 -0.0075226515 -0.007891703 0.0031257912 -0.020956283 -0.014160651 0.001699614 0.0029293734 0.004390263 0.012847168 0.0011929955 -0.002359349 0.012000909 -0.009274466 -0.0136472 -0.007873855 -0.013520903 0.0069615995 -0.005848863 -0.0065920297 -0.00897394 0.021033276 0.0015090207 0.0010722246 -0.0056421906 0.012822789 -0.0021252232 0.016092958 -0.01467564 0.0033320428 0.007963269 -0.013894429 0.014148175 -0.007889804 -0.0040440764 -0.014172898 0.008636861 -0.002741043 0.009092988 -0.0046738065 -0.010542693 -0.004669541 0.0058681904 0.0036349164 0.016575394 -0.018139256 0.014001584 -0.00453964 0.009785261 0.014505721 -0.009668219 0.01943994 0.0035942497 0.010511223 -0.008110913 -0.01917541 0.0036291033 -0.009333797 -0.0030513725 -0.013514828 0.012195095 -0.012599068 -0.005214388 -0.006801988 0.012400463 0.017585836 -0.0047619864 0.022460917 0.0064081354 0.004946397 0.010100389 0.020432323 0.013490164 0.006475157 -0.005572075 -0.0024235465 0.0013575702
거버넌스 -0.005651567 0.009762412 -0.00031616766 0.006754444 -0.0029927564 -0.022516966 0.008700127 0.021465518 -0.0141665 -0.004024986 -0.009217483 -0.012571923 -0.002554686 0.0026351167 0.0045868275 -0.01395474 -0.0046784035 -0.005756463 0.002079658 -0.012784365 0.0054514753 -0.0023605814 0.012017203 -0.011438956 -0.0110835545 0.008892949 -0.00794593 -0.019358175 -0.013079739 0.008710414 0.0060018837 0.0067768646 0.0039626514 0.0060539558 -0.008045653 0.000771093 -0.006863963 -0.0016279842 -0.004794606 -0.022930853 0.0068724994 -0.0028695029 0.0064185862 -0.0016269283 0.0037438865 -0.0041855793 0.0013975957 -0.011965255 0.014009096 -0.0040715924 -0.0029223985 -0.0110362815 0.010168872 -0.0064147017 0.004616057 -0.0011058061 0.0027222882 0.005845915 -0.0140311355 0.015337611 0.005229095 0.0011347764 0.006808841 -0.0030510921 -0.008566444 0.013072442 0.007578752 0.0025619583 -0.015673626 0.010005642 -0.0138503 0.000563407 0.014526503 -0.009183134 0.013807729 0.01205269 0.0021584583 0.00085344125 -0.004320973 -0.002497309 0.0029219894 0.009496363 -0.014757685 0.0029001064 -0.01133588 -0.0076662023 0.004485446 0.016321672 0.017840099 -0.0060122586 0.01187072 0.011883826 -0.012587084 -0.0063634464 0.015308745 0.0034563988 0.0027169758 -0.010603383 0.012397941 -0.010096435
운영 0.0064898725 0.002696861 -0.0076106978 0.0008732866 -0.00091282034 -0.018481487 0.015050138 0.02872132 -0.00013666414 -0.007421411 -0.013542863 -0.007927199 -0.008174461 -0.004854452 0.008567402 -0.0014696728 -0.0026365288 -0.008495182 -5.9148762e-05 -0.016757568 0.008996559 0.0042319833 -0.0025581613 -0.0054727537 -0.011546466 0.0104010245 -0.014198552 -0.011582797 -0.013471983 0.006219228 0.014504063 -0.006127318 -0.00016331783 0.003534586 -0.00586692 0.015742356 -0.004769708 -0.011747283 -0.0140350005 -0.013405481 -0.008151919 -0.0077680345 -0.0040166965 -0.0098672435 0.020755844 -0.0009685721 -0.013485109 -0.014872808 0.00518693 -0.0018714108 0.009125296 -0.0019026642 0.007986247 -0.003974758 0.0035477907 0.0002582057 0.0064637866 0.0023275958 -0.016850797 0.010457935 -0.002335693 -0.0034872422 -0.00054028013 -0.016364843 -0.012634294 -0.0016151022 0.014400408 0.0020556885 -0.016165243 0.0030579944 -0.01647116 0.001537736 -0.0015989 -0.010439455 0.011898377 0.0069221715 0.0059707905 0.008494759 -0.020082029 0.010498745 -0.00864709 0.00689007 -0.0040679285 0.02007524 -0.010220469 0.0050064404 -0.0073597743 0.010455724 0.0062116124 -0.013307356 0.016602887 0.0137868645 -0.007042007 -0.0047964714 0.014498466 0.008353356 -0.002451808 -0.011514634 0.004923154 0.0013277812
인지과학 -0.009467259 0.008511513 0.0045180996 -0.0008115083 -0.003814798 -0.012615317 0.008988895 0.015124239 -0.0060587847 -0.008672195 0.0005314992 -0.016092446 -0.015828282 0.0021610484 0.0037812316 -0.0068599526 0.0015889448 -0.0063316976 -0.0021255694 -0.0075887768 -0.0030095486 -0.0028899016 -0.004548252 0.004170003 -0.000530232 -0.005568866 0.002474405 0.00075986906 -2.1950891e-05 -0.0038118314 0.0028513665 -0.0006271201 -0.0030177215 0.007443353 -0.002500623 0.0020365533 0.0044967667 -0.016914051 0.001487783 -0.018859684 0.00198535 -0.011947766 0.0031509323 0.006487677 0.009132116 -0.005877435 -0.011901519 -0.0013123059 0.008393491 0.01196405 -0.00023118677 -0.0142658325 0.010533859 -0.0029264775 0.0007304229 0.015837207 -0.004803461 0.0032600083 -0.015775425 -0.002045459 -0.005260402 0.001122122 -0.0062564607 -0.010636753 -0.012763956 0.009511325 0.0092286505 0.015948785 -0.005641975 0.0067421654 -0.010557428 0.0113842795 0.012565186 -0.013131553 0.013118823 0.014485238 0.01161192 -0.0078873485 -0.011018302 0.0048861275 0.0024284313 -0.001731324 -0.014637448 0.015870238 0.005746098 0.00065392663 -0.005644191 0.005024129 0.0042537083 0.00019902182 0.01009696 0.00487977 -0.011234643 0.00018209736 0.01510245 0.016418995 0.0096481675 -0.008338128 0.01521568 -0.005780463
전문가 -0.002002024 0.0081316875 -0.009098586 0.011241809 0.0077467733 -0.00979674 0.0113305785 0.024581134 -0.006249215 -0.00799583 -0.0061651557 -0.007332339 -0.014939784 0.0025766538 0.006117664 -0.015305933 0.0038243667 -0.0040746573 -0.014366152 -0.016705913 -0.007985824 -0.0022384855 0.011573431 -0.012635311 -0.0047282213 -0.007402064 -0.013851393 -0.018134836 -0.0107251145 0.0055130613 0.0023873833 -0.0060115024 0.0012341801 0.0008642119 -0.01634131 0.006668026 -5.7547193e-05 -0.008682708 0.00013453598 -0.014645144 -0.0014052745 -0.0084365355 0.008868112 4.1678428e-05 0.016105479 0.0006002663 -0.013758144 -0.00029004388 0.009769583 0.006858318 0.015311798 -0.011341959 0.008185295 -0.0058844537 -0.013601721 0.011602002 0.004056513 0.009146866 -0.024475614 0.010897111 0.0024645654 0.0055019464 0.0012673509 -0.004927722 -0.0055331667 -0.00475029 0.0002002278 0.018972464 -0.0133393 0.0031606453 -0.011140388 0.0033410962 0.015257855 -0.006327237 0.008405791 0.001019683 -0.004909861 0.0016746089 -0.011271307 -0.0028842415 3.7207406e-05 -0.00903061 -0.01501506 0.015911026 -0.0011718941 0.00986153 0.007267463 0.01114823 0.017081918 0.0013328097 0.020850748 0.018941907 0.002039627 0.0075581977 0.018539643 0.011429265 0.00085321825 0.0016300099 0.00891636 -0.013167462
공유 -0.0034078108 -0.003550525 0.0069464464 0.0073761106 0.0025613962 -0.004503723 0.0140148215 0.011804196 -0.0098481765 -0.0033975719 -0.010073372 -0.015909573 -0.0070987954 -0.0073166606 0.010823099 -0.009980707 -0.005306821 -0.017898925 -0.00789755 -0.025668787 0.0010452227 0.010088593 0.00064953335 0.004019049 -0.004360015 -0.0065842797 -0.007836801 -0.011835211 -0.016139427 -0.0067749894 0.00422054 -0.00011720794 0.008601448 -0.005645241 -0.013239447 0.010387486 -0.004917865 -0.0059557236 -0.0070526414 -0.010311222 0.0077607944 -0.01741224 0.0034653665 0.0041892137 0.0109312385 0.006384655 -0.009169681 -0.008841205 -0.004286108 0.015128013 -0.0050667943 -0.007926177 0.0035349026 -0.0032143353 0.005864991 0.0010332704 -0.009059468 0.011662481 -0.021270065 0.014989619 -0.004394258 0.0066268626 0.0010643549 -0.012440372 -0.017723192 -0.0033502532 0.015702859 0.016236538 -0.009906594 0.017302364 -0.0017770835 0.0053855903 0.0080346605 -0.013797272 0.017010953 -0.0015807728 -0.0015351621 0.0017454477 -0.0032804918 -0.005294622 0.0008523308 0.0061396738 -0.01891836 0.019298717 -0.0070686927 0.011004446 -0.005841769 0.016149305 0.018872801 -0.013592987 0.010069106 0.00024347614 0.005658957 0.011928135 0.002937276 0.011408755 0.0030908247 -0.013695793 0.006587851 -0.01655796
안랩 0.00047618712 -0.0065980987 0.004175401 0.011184674 -0.004074054 -0.012733824 -0.0047474587 0.018379336 0.0006405663 0.009276264 -0.0017223693 -0.007911558 -0.0019957335 0.009162773 0.009947412 0.0024717213 -0.0077084503 -0.015169582 0.003247895 -0.02050828 0.0034587376 0.011839409 -0.00042323995 0.003876782 -0.010074435 0.0067443307 0.0021247566 -0.0038647584 -0.015397543 0.011587633 0.014946254 -0.000384709 0.007022186 0.008342741 -0.0084672 0.012673937 -0.006135558 -0.008873694 -0.005354194 -0.016045226 -0.0010571055 -0.015354687 0.003422195 0.007248692 0.013832248 0.0061121536 -0.007862583 0.0011007267 -0.003748119 -0.0005466941 0.013693985 0.002513533 -0.0016367085 -0.0050205803 0.004113204 0.008764049 0.005950713 -0.004791739 -0.01135323 0.0033397956 -0.0002600211 0.003108002 -0.0056015686 -0.0023115235 -0.010949111 0.010418074 0.0059051276 0.017459702 -0.0089349905 0.013876314 -0.012215934 -0.008153492 0.0038361652 -0.0054217936 0.016096044 0.009796828 -0.0039371173 0.0076924902 -0.0064465185 -0.0067287404 0.005178654 -0.0024684938 -0.017525652 0.016552994 0.0055857627 0.009861749 0.000782074 0.015576185 0.012969895 -0.010606631 0.017250255 0.002703782 -0.011966724 0.010525318 0.002042895 0.016870845 -0.0035796815 0.0045660897 -0.0010868215 -0.0016050882
데 0.007597936 0.0056380937 -0.0038675626 -0.0024378998 -0.011509924 -0.005017916 0.0129830185 0.0086104 0.003049519 0.0072685825 -0.014604129 -0.0034468593 -0.012413776 -0.004298443 0.0019024829 -0.01291427 -0.0036511116 -0.01561299 -0.01111365 -0.020283988 0.010383349 0.012075699 0.0022091963 -0.00606025 0.004062468 0.0015166353 -0.013151328 -0.014703424 -0.0066417814 0.010334239 0.010222179 0.011829959 0.00962335 0.00205545 0.0022055965 0.01627509 0.005668992 0.0020883335 -0.01368881 -0.008763902 -0.0080025885 -0.014987184 -0.008928501 0.0015474694 0.0096740825 -0.007435097 0.002417495 0.004656762 0.008002876 0.012556409 -0.00084839377 -0.010626155 0.007729066 -0.0015023851 -0.010134364 0.01082702 -0.0047578425 -0.003049926 -0.007895961 0.011472244 0.0070245494 0.0012340333 0.010190561 -0.004106008 -0.002058441 0.0017968726 0.009146206 0.014061967 -0.018622657 0.014734781 -0.0033257073 0.007670188 0.0030408239 -0.006293791 0.00036746767 0.0028177705 -0.00037109203 -0.005397293 -0.005941762 0.011763871 0.0047028577 -0.007887794 -0.016165888 0.0052282074 0.0019611593 -0.008579059 0.0072484077 0.011257941 0.0052239974 0.0060636993 0.01596378 0.0072194305 0.0028275847 -0.007399391 -0.001962184 0.005480515 0.014130726 -0.0015231346 0.010684566 -0.012773122
국제 0.0014030279 0.0022093754 -0.0030845618 0.0006548716 0.003062167 -0.021015022 0.0120876515 0.023415284 -0.0061721792 -0.0039044796 -0.014176422 -0.013370571 -0.012586547 0.0038608515 -0.003964317 -0.008521303 -0.0077925995 -0.0137689775 -0.005627778 -0.02553686 0.0038345363 0.014836905 0.00776107 -0.0024542466 -0.007998485 -0.001074926 -0.0024568012 -0.0077198204 -0.00075793284 0.0022450506 0.016085515 0.0076967776 0.006714744 0.009944744 -0.014115638 0.005714423 0.0038347985 -0.0016497438 -0.002445834 -0.020445002 0.007722042 -0.0075408844 -0.00047702267 0.00695922 0.016625213 0.003346322 -0.0042783613 -0.013963962 0.0011757726 0.008340507 -0.00042056903 0.0021958074 0.011793528 -0.0070279315 -0.009474309 0.0026191387 -0.00137252 0.000890487 -0.016055854 0.003468568 0.0036989013 0.010939022 -0.0032636696 -0.017560381 -0.0074732737 -0.0033844216 0.015654601 0.013245834 -0.01896468 0.0035075697 -0.015483521 0.004279194 0.008594335 -0.0016568082 0.008527532 0.008332054 0.0054538245 -0.0014644426 -0.017990638 0.003687054 0.0028947343 -0.0027092516 -0.013329553 0.008094573 0.0054991953 -0.0013729568 0.010120905 0.006751012 0.00018179395 -0.011114495 0.005991839 0.009663435 0.0022827983 0.0048579155 0.018555548 0.012226461 0.011601028 -0.0062308945 0.0044967756 -0.0008828382
참여 -0.0010154766 0.00987881 -0.010241005 -0.0050005503 -0.002568064 -0.013252288 0.0042080125 0.016243557 -0.008752502 -0.007799112 0.0020154838 -0.010168665 -0.009621254 -0.0012986801 -0.000857436 -0.016328244 -0.0005960995 -0.011298608 0.004226802 -0.024936767 -0.00437461 0.0029126997 0.0064331624 -0.010035832 -0.008451386 -0.007883239 0.0009865228 -0.017811205 -0.012300044 0.0032694738 0.00982576 -0.008114892 0.012594937 0.00027395706 -0.00818471 0.0004441599 -0.010976374 -0.00573703 -0.0015211139 -0.0126730045 0.0055530686 -0.016368907 -0.0014476903 -0.004205113 0.010407091 0.0041607064 -0.002371671 -0.012311979 0.0073361727 0.011952073 -0.0009429263 -0.0015363835 -0.00033261764 0.010688168 0.0001818594 0.010230164 -0.0016148111 -0.0067864475 -0.0045199497 0.0036240923 0.0074239345 0.0046375566 -0.0067370147 -0.009521987 -0.008047255 0.00017129676 0.01809799 0.0051490967 -0.01755445 0.014296802 -0.009758567 -0.005156141 0.007540612 0.0014080865 0.0024585556 0.0025685204 -0.0047962586 0.0015214595 -0.013802844 0.012743065 3.8003127e-05 0.0021469656 -0.013584878 0.017217388 -0.002342764 -0.006916268 -0.007109748 0.010705829 0.017706372 -0.0006638373 0.0047581894 0.0013574217 -0.012499695 0.006535352 -0.00031636195 0.014031873 0.007074583 -0.006759981 -0.003767061 -0.00048441612
세계 -0.0033069642 -0.008120472 -0.009825671 0.012665879 -0.00022640235 -0.02014014 0.0063617853 0.023254322 -0.013541256 -0.00670506 -0.0077885687 -0.0172056 -0.0067639523 0.0023959333 0.0094009675 -0.0064022923 0.0027709457 -0.0053123436 -0.009054255 -0.010079414 0.00086466316 0.0042146817 -0.0060918895 -0.0038889803 0.0035767122 0.0018965545 -0.013038671 -0.012826532 -0.015386747 0.0090691205 0.0025692561 0.0072482107 -0.0014128461 -0.0041542402 -0.016437883 0.01339129 -0.011825055 -0.016094796 -0.012851888 -0.020757062 -0.004429918 -0.0083539765 0.006342684 -0.0028502536 0.0066637904 0.0010730544 0.0016772192 -0.010116214 -0.001018806 0.0112876985 0.011511737 -0.012909553 0.012652465 -0.008199846 -0.011637654 0.0030790332 0.0012549509 0.002570259 -0.010505596 0.012695494 0.0047988985 -0.0018129385 -0.004871589 -0.017764606 -0.0121090915 0.013119267 0.0011450786 0.014691392 -0.0065409676 0.0065809865 -0.013260785 -0.0035453283 0.0011536969 -0.011245508 0.014264214 -0.0002832474 -0.0002616895 0.0046544853 -0.009722218 -0.0031177285 -0.0053956336 0.0038133971 -0.008501027 0.008462042 -0.0024614187 0.0043325094 0.0021205416 0.008284037 0.01592709 -0.0119768195 0.016617276 -0.0014462762 -0.0050369194 0.0093544265 0.006338061 0.018143909 0.011355885 -0.013939404 0.0065296926 -0.0113106575
중 -0.010862972 0.000668075 0.0043366733 0.012513973 -0.006793885 -0.013375773 -3.1739666e-05 0.016913386 -0.0007197485 -0.009776697 -0.0035071294 -0.015285542 -0.005770676 0.0049576764 -0.0045494814 -0.0060571665 -0.0009904566 -0.017923208 -0.006762487 -0.011395493 -0.008346346 -0.0012983468 0.0026283388 0.0042220266 -0.0012874242 0.010180138 -0.012058316 0.000706127 -0.013295844 -0.0034831066 3.3272972e-05 0.003548728 0.000677519 0.009901995 -0.008729465 0.011052706 0.0031649547 -0.017891767 -0.007290527 -0.01948487 -0.008894294 -0.0057428046 0.0021058535 -0.004043958 0.009196875 -0.0073480625 -0.0066082664 -0.0033632664 0.011603034 0.012260898 0.001116301 -0.0011617397 0.0012529076 -0.002976388 -0.0072824894 0.0014799926 0.0028028814 -0.005356695 -0.019786397 0.00082500844 0.0076048463 0.0027238047 0.006966796 8.072263e-05 -0.0161994 -0.0017889378 0.015481145 0.014644743 -0.004947447 0.019297643 0.003158883 -0.0011731156 0.0064251595 0.0017608064 0.016292011 0.016585838 -0.0059560407 -0.0050023305 -0.0035827619 0.004534522 -0.0006910923 0.0074873506 -0.0034840435 0.0019380586 -0.0044901716 -0.0071745776 0.007270386 0.012315279 0.007206903 -0.00207266 0.017092159 0.015836474 0.003762512 0.005744643 0.0104719 0.01810832 0.006594997 -0.0050886376 -0.004002139 -0.0037364261
이날 -0.010719542 0.008043152 -0.007439505 0.00094906485 -0.0004599912 -0.0101487925 -0.0040810895 0.016486358 -0.009241186 -0.009042364 -0.000800363 -0.005929692 0.0020151346 -0.0065532974 0.001102477 -0.0057259924 0.0069393697 -0.016861659 0.0026243879 -0.021312367 -0.0074827997 0.0041716113 -0.00042082244 -0.007074206 -0.007409021 0.004335205 -0.013190985 -0.005387866 -0.0026111072 0.0017853746 0.0057927542 0.008671031 -0.00721788 -0.0072456365 -0.0018071464 0.015770864 -0.010092383 -0.015512069 -0.004695452 -0.020908615 0.0020787728 0.0020146419 -0.006280522 -0.008191631 0.01763473 -0.0011911581 -0.006400748 -0.00614272 -0.0059414604 -0.00045110483 -0.0001085915 -0.0033656561 0.0036199098 0.00897008 0.0037513832 0.0045158574 -0.010507714 0.0043524597 -0.016052328 0.013100847 0.004053652 -0.00024761612 0.007993758 -0.010036408 -0.011725173 0.001960501 0.014855889 0.01340483 -0.0059331055 0.011686263 -0.0072679943 0.010935034 -0.0029420985 -0.0062969937 0.0006341966 0.014364475 -0.0014887874 -0.0025704901 0.00035828963 -0.0066459556 -0.0035187157 0.0030288135 -0.013995859 0.016138399 -0.00014351697 -0.0041713547 0.0052832654 0.01566596 0.008493163 0.0038758416 0.00044208815 0.0025058375 0.008010793 0.007860856 0.008758366 0.0046787173 0.008604986 -0.002278703 0.013211552 -0.0047602486
지속 0.006184184 -0.004283285 -0.00955336 0.0015983762 0.0016041859 -0.011379494 0.011320289 0.0056005837 -0.011967842 0.007873079 0.0010040286 -0.0092655 -0.008940932 -0.0033990543 0.0001898634 0.0032961443 0.0023383084 -0.009983356 -0.007289865 -0.016267134 -0.00887031 0.011011339 -0.006320119 -0.006041089 -0.009642607 0.009418825 0.0021576507 -0.007917653 -0.00400419 -0.00021426733 0.017029105 -0.0023086397 0.007552621 -0.0020784542 0.0024824776 0.017279755 0.00376747 -0.008099788 -0.0062293746 -0.02166353 0.008928047 -0.01658145 -0.0066040503 0.0040600635 0.007755832 0.007971272 -0.010740879 0.0054182434 0.0055905636 -0.0038610334 0.008110638 -0.009339743 0.009533661 0.008160391 -0.012126777 0.013342553 0.0043722265 0.008296346 -0.018428348 -0.002015548 -0.008932455 0.005670234 -0.0025345536 -0.0024034483 -0.003881636 0.010599763 0.009282848 0.00713395 -0.0066644484 0.011775944 -0.013576164 -0.0042973957 0.0037461666 0.0015780515 0.006444813 -0.003368105 0.0011926203 0.0074248724 -0.0010835858 0.0065851626 -0.0056193783 -0.003624283 -0.011106202 0.002246808 -0.010335692 0.00073964306 0.0024031526 0.013355755 0.011884215 0.0052697673 0.0013803729 0.016131638 -0.0053385166 0.0032582781 0.0039985 0.004770255 0.002940327 -0.012733941 0.013918252 -0.0008314607
확대 -0.0050123106 0.0035573705 0.0062074633 -0.0021495172 0.0025228043 -0.009100471 0.0090534445 0.012920385 -0.013113679 0.006173188 -0.006992756 -0.014260372 -0.00515056 -0.0059061283 0.007940874 -0.012677394 -0.00051107554 -0.009142926 -0.008563093 -0.018176535 0.0078833895 0.0058925645 -0.006297173 -0.0037921541 -0.012052302 -0.003112566 0.0006695269 -0.00428093 -0.013893644 0.0040091407 0.013390804 -0.005701732 -0.00022987019 -0.0002623059 -0.016505195 0.010395763 0.0040695164 -0.006363948 -0.002717145 -0.015095378 -0.0012865077 -0.0149551425 -0.0006394798 0.005273782 0.013295123 -0.00015998023 0.0046047717 -0.0015717668 -0.004067871 0.012423715 0.013966377 -0.0135002965 0.010601081 -0.006239203 -0.003909049 0.01144026 -0.0061299284 -0.0060016504 -0.019319817 -0.004971528 -0.0063851704 0.010286991 0.00438231 -0.017191034 -0.0009434064 0.00971881 0.015467272 0.018683799 -0.018119492 0.0072752857 -0.0029180623 0.0040955655 0.00965273 -0.011359009 0.01201847 0.016252019 -0.006910259 0.008004145 -0.004934015 -0.0005766197 -0.002046742 -0.008625584 -0.016769845 0.014023612 -0.0048197736 0.01153709 -0.0073083946 0.0021645357 0.014958532 0.004025669 0.0126411645 0.014557566 0.0040845685 -0.0034504095 0.017548425 0.0033792425 0.0016325077 -0.011570313 0.011591139 -0.010084324
경영 0.00064731913 0.000165666 -0.0032127984 -0.003427622 -0.0069689476 -0.013217783 0.0055796155 0.015726248 -0.0062716333 0.0021193167 -0.010971772 0.0048588505 -0.0056329183 -0.006608675 -0.001594025 0.0021140673 3.3999604e-05 -0.013159675 -0.011882043 -0.020260727 -0.002904073 0.011931748 -0.004581036 -0.0016667985 -0.002669314 0.004089788 -0.01170018 0.00018877504 -0.010502229 0.0071882806 -0.0024964432 0.0064384383 -0.0054790326 -0.001642577 -0.00821879 0.0041464297 -0.003138905 -0.0077198558 -5.209681e-05 -0.01562628 -0.0044170213 -0.014384678 0.008636905 0.002816598 0.019280175 0.0055429004 -0.0077041695 0.0047682794 -0.0036025112 0.0076388237 0.0006909644 -0.0039478187 0.007118817 -0.0013429709 -0.007502788 0.0049214885 -7.602792e-05 0.008519062 -0.016931579 0.0091635715 -0.0033505408 -0.007530604 -0.004242571 -0.0054623443 -0.00012275594 0.010791163 0.016227303 0.014981001 -0.010941787 0.0061682174 0.004042817 0.008206325 0.010915279 0.003666858 0.0085144425 0.0087138545 -0.0060102115 0.0077828905 0.0018215883 -0.004190516 0.00020497052 0.009251727 -0.005283838 0.015260915 0.0060443864 -0.0005338399 0.00947519 0.014155729 0.0065607256 -0.003121867 0.017940577 0.012525484 -0.008700733 -0.0009752834 0.004746787 0.011979262 0.005282685 -0.014012534 0.0069892434 0.004617221
공동 0.00024796606 0.005622683 0.00049332774 0.011379587 0.0076712505 -0.0060367375 0.0029197864 0.01768884 -0.011006561 0.008480765 -0.009382521 0.004245518 -0.01545038 -0.0019892163 0.00958007 -0.00995945 -0.0011304535 -0.0029654487 0.0056190323 -0.014264532 -0.006726406 0.0138033405 -0.0066107856 -0.0020273805 0.0032602993 -0.0077838507 -0.009390537 -0.016499255 -0.0073819607 0.0075802277 -0.001126143 -0.0016128186 0.011345829 -0.0021211547 -0.0041683004 0.01077214 -0.0059070094 -0.01378628 0.0037166625 -0.015564687 0.00860965 -0.010360108 0.0028991944 0.0044404943 0.010301239 0.003785329 -0.008976717 0.004033685 0.0016515586 0.0002618306 0.00867736 0.005949642 -0.0024747802 0.0024826643 0.0013193332 0.003934433 0.00033647678 0.010953222 -0.0033302424 -0.0020496452 -0.0030202481 0.009891886 0.0010026857 -0.017066969 -0.009576074 -0.0045028445 0.007980445 0.009409955 -0.013281731 0.004397444 0.0043091443 0.006164183 0.00730356 -0.0011983842 0.014827531 0.00039060763 0.008201613 -0.0009544423 -0.015531575 -0.0064778477 -0.0021015124 0.008187227 -0.006499511 -0.001127531 7.3021314e-05 -0.0024406489 -0.0036527265 0.01653635 0.013874437 -0.0034743443 0.010575461 0.0075271497 -0.0122223 0.005126806 0.015254569 0.013000922 0.006833932 -0.0085854875 0.007276122 -0.012847771
국내 0.0015729851 0.0040777335 -0.0025828916 0.0028585342 0.0009720085 -0.008530361 0.007828472 0.025301075 0.0001009978 0.0012986303 -0.009258415 -0.012687408 -0.01602812 -0.0025910859 0.0051484606 0.0009959507 0.0015403122 -0.014106154 -0.0007635198 -0.020007404 -0.00037889174 0.013132559 0.011295612 -0.004461929 -0.008583038 0.0036541098 0.005272712 3.9245257e-05 -0.010682079 0.010007614 0.017450018 -0.00788534 0.012231312 0.002518278 -0.013431701 0.012543689 0.0063165827 -0.016315171 0.001809618 -0.021475732 -0.008167965 -0.0035189972 -0.004932025 0.0029740161 0.018725075 0.009132381 0.0023085922 -0.013521836 0.007241612 -0.003498652 0.004343103 0.0051090303 -0.0013998623 0.0059619583 -0.009513105 -0.000112853755 0.007524398 0.0055467873 -0.0052918755 0.008547718 0.0015918743 0.0047872085 -0.0071535483 -0.0017746672 -0.014417059 0.0075806454 0.0025143905 0.010485287 -0.0059052454 0.007817218 -0.013118305 -0.0040146755 -0.00460434 0.0058960193 0.0030904906 0.005482578 -0.006750097 -0.004522616 -0.013551984 0.0066841724 0.0053082015 0.0034217897 -4.5854278e-05 0.011199376 0.008430119 0.009158776 0.0035151828 0.012012572 0.0020528082 -0.006265071 0.014946992 -0.00042092943 -0.0003346541 -0.0050928486 0.018613147 0.0101307165 0.006057411 -0.010784359 0.012075766 -0.013399222
개최 -0.009681578 0.007926588 -0.004720748 0.0017954326 0.004092481 -0.0035210575 0.011073576 0.01930448 0.0030846603 -0.008826945 0.00055993296 0.0040480997 -0.008669066 0.0014606826 -0.0029995074 -0.008451934 0.009548543 -0.007357527 0.000252313 -0.017644161 0.0061434233 -3.983634e-05 -0.0025068473 -0.0006728971 0.007620789 -0.0060393796 0.00025381753 -0.0073604994 -0.013821083 -0.002108741 -0.0022288812 0.0071074315 2.1608212e-05 -0.003522688 -0.0053285128 0.011424303 0.007340316 -0.016717067 -0.0040217233 -0.012480904 -0.0027869556 -0.0073097283 0.00795019 -0.0030909544 0.017723145 7.5936823e-06 -0.003957931 0.0035160226 0.009977018 0.0045440695 0.003472817 0.002945008 -0.000803937 0.005887219 -0.0029789126 -0.00014132205 0.0060034525 -0.0022340755 -0.00740687 -0.0028760894 0.002883938 0.00648351 0.0060645617 -0.014477436 -0.0139076365 0.009143123 0.009238419 0.008484802 -0.013784264 0.006327731 -0.013413504 0.0026989442 -0.00050394115 -0.0021531472 0.010311661 0.00752483 -0.0057081864 0.0008538333 -0.013331746 -0.0007711796 0.0014742613 0.008121835 -0.014074019 0.009184122 0.0069359313 0.011091784 0.006482405 -0.000117835865 0.010969463 0.0058337115 0.011497559 0.008300604 -0.003465862 0.005516027 0.011056635 0.01666096 0.00014998752 -0.013217559 0.010944149 -0.010856274
한편 -0.002464333 0.0024047913 -0.0023528193 -0.0018707511 -0.00017591997 -0.016306141 0.005270352 0.0058139144 -0.008000874 0.0038837069 -0.0022044666 -0.00039293722 -0.0028384645 -0.00934532 0.010301866 -0.007612945 -0.0014823889 0.0014176188 -0.002625461 -0.0066940435 0.0025435272 0.005234769 0.008587316 0.007200201 -0.0022954233 -0.0033620559 0.0018581686 -0.013640898 0.003163069 0.004196549 0.011087761 0.0037538414 0.0007121217 0.002338887 -0.009915765 0.014515946 0.00332794 -0.0020579353 -0.008210467 -0.017928965 0.007795765 -0.0026677882 -0.004362245 -0.009636369 0.0029804057 0.0011387195 -0.011333703 -0.0027699012 0.0050526382 -0.0065644765 0.0028310595 -0.009181914 -0.0012091901 -0.0006610922 -0.01228927 0.001266586 -0.007517551 -0.0059292973 -0.006215664 0.0055471114 0.0095108505 0.009395285 -0.005441593 -0.01472937 0.0015717378 0.0072417925 0.011981303 0.0031319435 -0.011260238 0.0015587576 -0.011722484 0.0069846986 5.458302e-05 0.0062918817 -0.0008841018 0.013887658 -0.0032428901 0.008759615 -0.010774855 -0.0052485405 0.0072600404 -0.009780213 -0.015020162 0.010835541 -0.010866651 0.006161204 0.00410866 -0.0010253052 0.00914061 -0.0008754333 0.014411228 0.0078317 -0.0065839314 -0.0008495354 0.012493783 -0.00015506835 0.012575137 -0.006910158 -0.000874127 -0.008279413
미래 -0.000208687 -0.0075795893 0.0010161866 -0.00014524891 0.007993089 -0.017510084 -0.0005643449 0.022471871 0.0048267473 0.0029330775 -0.009278205 -0.003907094 -0.016313476 -0.003546196 -0.0040227235 -0.0056730304 -0.004798377 -0.018473977 -0.011653226 -0.013415217 0.0028841398 0.014069655 0.005972045 0.0012579577 0.0011278953 0.004834098 -0.0100119375 -0.008434869 -0.009756479 0.008307754 0.0028712563 0.0013810205 0.0078138895 -0.0021091437 -0.01792191 0.015942885 -0.0037567937 -0.010538716 -0.012196047 -0.0090736775 0.0005962149 -0.009179508 -0.0004558213 -0.0013587344 0.019065702 -0.009475639 -0.0019711764 -0.01124686 0.013568076 0.010692596 4.7035486e-05 -0.0070283227 -0.0014616247 0.010749787 0.0045990855 0.01117737 0.009287359 -0.002068492 -0.012145195 0.0012674411 -0.008547935 -0.0033918964 0.00051289203 -0.015661886 -0.016390758 0.003610951 0.009284947 0.0024771905 -0.004520234 0.013314636 -0.016026558 0.0008853757 -0.0015621926 0.00344333 0.007799045 0.01562605 0.0076926393 -0.003968971 -0.019316886 -0.002253585 0.008201736 -0.0014753806 -0.011846593 0.010915962 -0.010267349 0.005851033 -0.007545925 0.020836612 0.0030910806 0.0033307208 0.009185048 0.0071662655 -0.005392379 0.0039991257 0.013520542 0.013629378 0.0052434597 0.00044182857 0.000112272166 -0.014969246
예정 -0.009125346 0.0074233953 -0.0031086188 -0.002208886 0.00400379 -0.014842836 0.0069753826 0.020470683 0.0043458105 -0.002766644 -0.0016265414 0.0003950847 0.0053657205 -0.0022090834 0.0017246782 -0.0085888235 -0.0025968477 -0.005570892 -0.0007130296 -0.016003827 0.0043609925 -0.0021161735 -0.0025712845 -0.011434285 0.005654953 0.004390919 -0.005081277 0.0025632111 -0.0038177406 -0.007910682 -0.0025821256 -0.0032627408 -0.0051984666 0.009011417 -0.00050175 0.007890935 -0.002446429 -0.013894914 0.0025738778 -0.015182548 -0.0028103073 -0.012002645 -0.0024157772 -0.01027173 0.010693014 -0.008007991 0.00437652 -0.010722395 -0.0034994255 0.0036292188 -0.004683223 0.0020435886 -0.0019026431 0.0015193896 0.0051944344 0.008256846 -0.00044292895 0.009018444 -0.008515605 0.009175209 0.0061388724 -0.007381823 0.0028881654 -0.0153353615 -0.00811659 0.010434312 0.0027807818 0.0016583665 -0.003950343 0.014306156 0.0031454829 -0.0053884736 0.010374389 0.004941803 -7.153995e-05 0.0031804298 0.0010487665 -0.009310497 -0.008269763 0.012307441 -0.0030360916 -0.007939378 -0.010967503 -0.0033561704 0.0006608885 0.0070120883 0.0010694634 0.0031254236 0.015893921 -0.011925676 0.001965666 -0.0046145185 0.008009074 -2.109728e-05 0.0008217164 -0.00097524916 0.011687014 -0.006909349 -0.0017934771 -0.00029191878
미 -0.009186153 0.010304341 0.0046366244 -0.00093514874 -0.005049541 -0.008308872 -0.004115936 0.018180937 0.0010927875 0.006359282 -0.01510202 -0.0058757877 -0.012244524 0.0062214364 0.011193954 -0.006674926 -0.0073090256 -0.003275282 -0.004808599 -0.011604024 -0.006120061 0.0035655987 -0.00032297158 0.0038062946 -0.010202696 -0.003451029 -0.0057320334 -0.010674376 -0.0021710126 0.0021679578 0.0050311126 -0.0070449 -0.0064572133 0.004368429 -0.0076865503 -0.0020338735 0.004645252 -0.00049274415 0.0018782639 -0.016384678 -0.0003213145 -0.00048903434 -0.0069164913 -0.008829601 0.0020577158 0.0036986666 -0.012534529 -0.0017210135 0.011856716 0.006264771 -0.0059110387 0.003676935 0.009408987 -0.006751868 0.002721436 0.016118385 0.0047428906 -0.0020751394 -0.004932536 -0.00011729168 -0.007075041 0.0050055305 -0.0038008657 -0.009036729 -0.014603487 -0.004261825 0.0053155725 0.009723045 -0.007864068 0.016757712 -0.0012758019 -0.008064525 -0.0038349377 -0.005449964 0.0039038202 -0.00037849697 0.011119793 0.0041174614 -0.015341228 0.009213927 -0.0020765204 -0.0073349955 -0.00912387 0.015875146 -0.007082866 -0.0025198804 -0.00096637564 0.013345389 0.013409474 -0.010939271 -0.00042152323 0.0064792563 0.00073269417 0.0056308047 0.01067845 0.008870316 0.003945909 -0.001524202 0.0048639453 -0.0006405217
